SVM-light Version V6.02
0 # kernel type
3 # kernel parameter -d 
1 # kernel parameter -g 
1 # kernel parameter -s 
1 # kernel parameter -r 
empty# kernel parameter -u 
101377 # highest feature index 
18457 # number of training documents 
4487 # number of support vectors plus 1 
-0.2390713 # threshold b, each following line is a SV (starting with alpha*y)
0.0012231490351739108569939507020763 1:2 7:3 11:5 13:1 17:1 18:3 31:1 33:1 34:5 35:9 40:2 50:1 51:2 53:3 64:4 67:7 73:1 74:1 78:1 79:1 96:1 101:1 109:2 114:2 119:4 120:2 128:1 142:4 144:5 146:1 227:1 231:1 269:1 272:2 274:1 300:1 307:2 338:1 357:3 408:1 413:1 425:1 474:2 498:2 517:3 529:7 534:1 535:1 550:2 566:1 595:1 598:8 605:1 768:1 848:1 864:1 941:1 945:1 968:1 1272:2 1373:1 1390:1 1404:1 1458:1 1491:4 1494:3 1533:1 1575:1 1601:1 1626:1 1629:1 1636:1 1660:1 1676:1 1696:1 1710:1 1713:1 1773:1 1811:1 1859:1 1860:4 1861:2 1953:1 2077:1 2232:1 2287:1 2320:1 2341:1 2400:1 2538:1 2539:1 2599:1 3122:1 3345:2 3457:1 3572:1 3668:1 3681:2 3822:1 4038:1 4123:1 4521:1 4531:1 4724:1 5391:1 5436:1 5641:2 5818:1 5910:1 7137:1 7170:1 7400:1 7914:1 8236:1 8372:1 8411:1 8429:1 8725:1 9310:1 10045:2 10173:1 10480:1 11412:1 11931:3 11941:1 13099:1 13298:1 14594:2 17099:1 24060:1 34197:1 34198:1 34199:1 #
0.0012231490351739108569939507020763 1:1 14:1 33:1 35:5 38:1 53:1 57:1 67:4 74:1 136:1 144:1 174:1 244:2 269:1 271:2 276:1 281:1 308:1 338:1 455:1 530:1 550:1 586:1 729:1 816:1 878:1 1287:1 1484:1 1495:1 1517:1 1587:1 1598:1 1622:1 1626:1 1763:1 2291:1 2370:1 2825:1 3017:1 3179:1 3408:1 3951:1 4521:1 5084:1 5152:1 5482:1 5483:1 5751:1 6181:1 6186:1 7718:1 8750:1 16612:1 17237:1 37034:1 37035:1 37036:1 #
0.0012231490351739108569939507020763 1:1 7:1 9:1 11:1 35:2 53:1 64:3 67:2 76:1 96:1 108:1 142:1 144:2 150:1 244:1 259:1 271:1 281:1 357:1 644:1 848:1 1356:1 1472:2 1484:1 1545:1 1564:1 1612:1 1628:1 1859:1 2173:1 2556:2 2561:1 2796:1 3408:1 3981:1 4577:1 5750:1 9804:1 13118:1 13233:1 45337:1 #
-0.0012231490351739108569939507020763 1:1 #
-0.0012231490351739108569939507020763 1:1 42:1 53:1 73:1 386:1 876:1 1289:1 1995:1 2270:1 2936:1 3327:1 3387:1 3412:1 3642:1 4230:1 4722:1 7615:1 9160:1 9594:1 11969:1 12647:1 15387:1 16989:1 19576:1 20583:1 22731:1 22856:1 24873:1 26916:1 28003:1 30260:1 33412:1 37912:1 39781:1 40485:1 40799:1 53431:1 54488:1 54862:1 55052:1 55176:1 56115:1 56129:1 57836:1 59481:1 60289:1 60398:1 60964:1 61437:1 63228:1 63354:1 63697:1 63842:1 65076:1 65147:1 65183:1 65984:1 66937:1 69368:1 70526:1 70527:1 70528:1 70529:1 70530:1 70531:1 70532:1 70533:1 70534:1 70535:1 70536:1 70537:1 70538:1 70539:1 70540:1 70541:1 70542:1 70543:1 70544:1 70545:1 70546:1 70547:1 70548:1 70549:1 70550:1 70551:1 70552:1 #
0.0012231490351739108569939507020763 1:1 1693:1 4521:1 #
-0.0012231490351739108569939507020763 1:1 11:1 259:1 281:1 310:1 672:1 872:1 1590:1 1614:1 2670:1 3681:1 3910:1 11069:1 15995:1 47033:1 47218:1 47657:1 54399:1 87928:1 88285:1 88286:1 88287:1 88288:1 88289:1 88290:1 88291:1 88292:1 88293:1 #
0.0012231490351739108569939507020763 1:1 1966:1 2162:1 4536:1 9020:1 #
0.0012231490351739108569939507020763 1:1 788:1 2832:1 12668:1 #
-0.00027882210461824356037899286242521 1:1 7:2 13:1 14:2 21:1 33:1 35:9 40:1 52:1 53:2 55:1 63:2 64:6 67:2 73:2 96:2 99:1 108:3 119:2 120:2 124:1 128:1 130:1 136:1 141:1 142:9 144:1 205:1 227:1 228:1 244:5 250:1 258:3 259:2 269:1 271:1 301:1 351:1 390:2 444:2 455:2 564:1 569:1 587:2 598:1 620:1 686:1 763:1 767:1 848:2 863:1 865:1 866:1 871:1 945:1 1373:1 1469:1 1480:3 1491:3 1522:1 1541:1 1690:1 1711:1 1764:1 1836:2 1855:1 1900:1 1944:1 2047:1 2060:1 2077:1 2197:1 2213:1 2248:1 2304:1 2410:1 2732:1 2882:1 2891:1 3156:1 3370:1 3568:1 3591:1 4519:1 5268:1 5657:1 6035:1 7061:1 7416:1 7607:1 8070:1 8753:1 9269:1 9768:1 10543:1 11184:1 12180:1 12884:1 13781:1 15530:2 18123:1 21734:1 23699:1 24617:1 26879:1 27093:1 28476:1 29321:1 39093:1 39308:1 45175:1 50009:1 52236:1 57113:1 57495:1 57520:1 74197:1 84086:1 84668:1 85634:1 90184:1 90185:1 #
0.00082005784389432823631993496604764 1:1 3:3 5:2 7:1 11:8 13:1 17:1 33:3 35:10 51:1 53:2 57:2 64:2 67:15 79:2 96:2 99:1 108:1 109:5 112:1 114:1 120:1 128:3 139:1 140:1 142:6 144:3 150:8 200:1 227:1 244:3 259:2 269:1 271:2 338:2 343:1 393:1 408:2 413:1 498:2 517:2 543:1 573:2 598:2 644:1 724:1 755:1 805:1 867:1 942:1 1191:1 1316:1 1346:1 1373:1 1394:1 1483:1 1491:17 1499:1 1517:1 1528:6 1541:4 1590:2 1624:1 1627:2 1630:1 1636:2 1650:8 1661:1 1673:3 1676:1 1713:1 1744:1 1773:5 1890:1 1900:1 1911:3 1944:1 2198:1 2375:1 2422:1 2471:1 2500:1 2624:6 2628:1 2641:3 2750:2 2791:1 2825:1 2850:1 2970:6 3001:1 3156:1 3191:1 3253:1 3342:3 3370:1 3411:1 3423:4 3497:1 3575:1 3603:2 3625:1 3668:2 3727:1 3986:2 4521:6 4639:1 4646:2 4666:1 4689:1 5087:1 5127:1 5207:1 5209:1 5210:2 5229:1 5610:1 5750:1 7508:1 8388:1 9006:1 9272:1 9556:1 10212:1 11139:2 11327:1 11666:2 11895:1 13946:1 15065:6 15066:1 15067:1 15068:1 15069:1 #
-0.0012231490351739108569939507020763 1:1 7:1 11:4 35:1 51:1 57:1 67:3 79:2 96:3 109:1 205:1 244:1 259:1 269:1 271:2 408:1 413:1 498:1 507:1 968:1 1404:1 1590:1 2555:1 2565:1 2653:1 2962:1 3570:1 4681:1 5730:1 8101:1 11662:1 17500:1 24756:1 33210:1 36950:1 38363:1 55146:1 55701:1 #
0.0012231490351739108569939507020763 1:1 53:1 99:1 344:1 597:1 598:1 771:1 848:1 964:1 970:1 1372:1 1458:2 1466:2 1482:1 1484:1 1491:1 1545:1 1723:1 1890:1 2794:1 2836:1 3345:1 5015:1 5882:1 6752:1 14254:1 24642:1 24643:1 29178:1 34248:1 34249:1 #
0.0012231490351739108569939507020763 1:1 5:8 7:5 11:6 12:2 14:4 29:1 33:4 35:5 51:2 53:1 55:2 64:2 67:8 84:1 96:1 108:4 109:2 112:1 114:1 119:3 120:2 124:1 126:1 135:1 136:1 138:1 142:2 144:1 145:1 146:1 150:2 185:1 195:1 227:1 228:1 244:4 250:1 259:6 269:2 271:1 276:2 300:3 301:2 328:1 337:1 338:1 377:1 468:1 491:1 498:2 517:1 555:1 569:1 573:1 598:1 620:1 702:1 716:1 725:2 757:1 870:3 871:1 882:1 1355:1 1398:2 1404:1 1458:1 1489:1 1498:1 1511:1 1517:1 1541:3 1584:1 1590:3 1591:1 1596:3 1852:1 1891:1 1917:1 2039:1 2115:1 2279:1 2284:2 2297:1 2342:1 2410:1 2499:1 2661:1 2818:1 2825:1 2832:1 3264:1 3465:1 3531:1 3942:1 3946:2 3956:1 4834:1 5088:1 5102:1 5593:4 5705:1 5875:2 6780:1 6800:1 6969:1 7788:1 8212:1 8286:1 8710:1 8727:1 8935:1 9956:1 10013:1 10527:1 11582:1 15084:1 16966:1 20318:1 20493:1 23787:1 24015:1 29612:2 30982:1 47949:1 48281:1 48282:1 48283:1 48284:1 48285:2 48286:1 48287:1 #
-0.001017642865954100335826315593124 1:1 11:2 14:2 18:1 27:1 33:2 35:3 51:2 53:4 55:2 64:1 67:2 73:1 79:1 99:1 100:1 108:2 114:1 120:1 128:1 130:1 142:4 144:3 150:3 205:1 244:1 258:2 271:1 281:5 295:1 448:1 498:1 562:1 587:2 620:1 655:1 657:2 767:1 848:1 856:1 941:1 1078:1 1355:1 1458:1 1489:1 1491:1 1521:1 1528:1 1530:1 1573:1 1596:1 1615:1 1676:1 1679:1 1728:1 1860:1 1945:1 2103:1 2248:1 2337:1 2347:1 2435:1 2533:1 2569:1 2599:1 2654:1 2773:1 2902:1 2957:1 3169:1 3232:1 3366:1 3374:1 3393:1 3657:1 4630:1 5188:1 5377:1 5566:1 5604:1 6696:1 7516:1 8089:1 8725:3 8804:1 9494:1 13051:1 14148:1 15480:1 16337:1 16912:1 18255:1 19221:2 22701:1 30871:1 35459:1 37824:1 39120:1 41063:1 56639:1 57303:2 96603:1 97391:1 98668:1 98669:1 98670:1 98671:1 98672:1 98673:1 98674:1 98675:1 98676:1 98677:1 #
-0.00085271236113316757707775161989616 1:1 5:1 7:1 12:1 13:1 14:1 18:2 27:1 33:11 35:32 40:1 51:3 53:1 55:3 64:5 67:12 79:3 85:1 94:1 96:2 99:1 108:6 109:1 112:1 119:6 120:2 128:1 130:1 136:3 140:1 142:8 144:14 150:5 162:1 174:2 178:1 199:2 223:1 227:1 228:11 244:1 245:2 250:2 259:6 263:3 266:1 269:3 281:7 292:6 300:1 301:2 331:1 342:2 364:1 371:1 390:2 408:1 441:2 444:2 466:2 468:1 488:1 507:1 510:1 535:7 564:1 579:1 595:1 600:1 601:1 605:1 660:1 665:1 669:1 676:1 714:1 722:1 784:2 795:1 805:1 816:2 859:1 863:2 870:2 882:1 945:1 980:1 1062:1 1121:3 1192:1 1215:1 1272:2 1355:1 1483:1 1486:1 1494:1 1515:1 1570:1 1756:1 1809:2 1852:1 1857:1 1882:1 1883:1 1890:1 1891:1 1915:1 1940:1 1949:1 1966:1 2012:1 2040:1 2067:1 2090:1 2133:1 2166:1 2223:1 2266:1 2300:1 2305:1 2380:1 2419:1 2427:1 2437:1 2451:1 2486:2 2514:1 2520:1 2551:1 2568:1 2724:1 2753:2 2774:1 2890:1 2894:1 2950:1 2984:1 3012:1 3124:1 3151:1 3222:1 3223:1 3273:1 3334:1 3361:2 3452:1 3462:2 3486:1 3494:1 3606:1 3609:1 3657:1 3887:1 3904:1 3914:1 3942:1 3948:1 4136:1 4565:1 4832:1 5102:1 5255:4 5319:1 5593:1 5847:1 5942:1 6082:1 6105:1 6133:1 6400:1 6547:1 6660:1 7032:1 7107:1 7112:1 7612:1 7614:1 7884:1 7905:1 8015:1 8029:1 9258:2 9345:1 9625:1 9709:1 9889:1 9937:1 10424:1 10491:1 10605:1 10788:1 10807:1 11048:1 11772:2 11783:1 12253:1 12262:1 13249:3 13262:4 13266:1 13474:1 13695:3 14148:1 14152:2 14166:1 14178:1 14190:2 14360:1 15132:2 15133:1 15486:2 16046:1 16431:1 16482:1 16725:1 17489:1 17505:1 18023:1 18054:2 19672:1 21071:1 22709:1 23057:1 23838:2 23877:1 25318:1 26745:2 26861:5 26869:4 26872:2 26909:2 28033:1 28101:1 29123:1 30870:1 36225:2 36533:1 37975:1 38892:1 45053:3 45055:1 45056:1 46063:1 47764:1 48809:1 50253:1 53363:2 54961:1 56043:1 56044:1 56045:1 56046:1 56047:3 56048:1 56049:2 56050:1 56051:2 56052:1 56053:1 56054:1 56055:1 56056:1 56057:1 56058:1 64018:1 #
0.001222106038682324634717102362913 1:1 5:1 35:1 53:2 64:2 96:1 142:1 144:1 150:1 517:1 591:1 848:1 1339:1 1458:1 1488:1 1489:1 1491:1 1545:1 1553:1 1586:1 1752:1 2241:2 2624:1 2625:2 2626:1 2627:1 2628:1 2629:1 2630:1 2631:1 2632:1 2633:1 2634:1 #
0.0012231490351739108569939507020763 1:1 5:1 11:1 35:1 57:1 64:1 119:1 1491:1 1545:1 1811:1 4528:1 4584:1 5180:2 5391:1 7105:1 24044:1 #
-0.0012231490351739108569939507020763 1:1 11:2 35:1 53:2 57:1 96:1 100:1 119:1 130:1 144:1 181:1 205:3 271:2 455:1 457:2 513:1 527:2 545:1 663:2 701:1 980:1 1005:1 1458:1 1491:1 1494:1 1526:2 1617:1 1729:1 1890:1 1903:1 1953:1 2087:2 2146:1 2315:1 2511:1 2613:1 2850:1 3510:1 4123:1 4198:1 4623:1 5242:1 5454:1 5604:1 5847:1 6768:2 11159:1 14134:1 17397:1 29180:1 #
0.0012231490351739108569939507020763 1:2 2:1 5:7 7:5 11:1 12:1 13:3 16:1 17:1 18:2 21:1 22:1 26:1 33:4 35:12 40:3 51:2 52:1 53:2 55:2 57:1 64:4 67:4 73:6 79:2 108:2 119:1 120:1 128:1 142:10 144:7 184:1 194:1 200:1 205:2 216:2 227:1 244:4 246:1 259:6 267:1 268:3 269:3 271:5 276:1 281:2 300:1 320:1 385:1 390:1 393:1 437:1 459:1 468:1 498:1 507:1 510:1 550:2 555:1 600:1 605:1 616:1 639:1 680:2 725:1 738:1 848:4 863:1 898:1 913:1 941:1 999:1 1002:1 1084:1 1253:1 1278:1 1289:1 1310:1 1311:2 1312:1 1379:2 1398:1 1404:2 1411:1 1452:1 1458:1 1463:2 1470:1 1473:1 1480:1 1484:2 1516:2 1517:1 1541:2 1590:1 1595:1 1622:1 1710:1 1712:3 1763:1 1775:1 1782:1 1801:1 1848:1 1862:1 1944:1 1949:1 1994:1 2091:1 2168:1 2213:2 2249:1 2265:1 2308:2 2380:1 2403:1 2602:2 2724:1 2794:3 2814:1 2815:1 2834:1 2849:3 2999:1 3020:2 3022:2 3033:2 3049:1 3064:1 3144:1 3222:2 3297:1 3353:1 3436:1 3715:1 3736:1 3754:1 3770:1 3799:1 3910:2 3965:1 4062:1 4150:1 4242:1 4418:1 4468:1 4496:1 4541:1 4565:1 4702:3 4711:1 4771:1 4951:1 5089:1 5281:1 5287:1 5344:1 5362:1 5416:1 5673:1 6017:1 6021:1 6028:1 6044:1 6151:1 6278:1 6319:1 6327:1 6674:1 6814:1 6854:2 6930:1 7023:1 7038:1 7169:1 7176:1 7269:1 7626:1 8138:1 8298:1 8346:1 8438:1 8619:2 8743:1 8802:1 9055:1 9495:1 9917:1 10027:1 10879:1 10985:1 11096:1 11127:1 11163:1 11331:1 11350:1 11562:1 11719:1 11928:1 12671:1 13251:1 13736:1 13807:1 14859:1 15276:1 15626:1 16137:1 16157:1 16511:1 17169:1 17660:1 18025:1 19876:1 20292:1 20706:1 20864:1 20962:2 21071:1 21491:1 22709:1 22832:1 24470:1 25484:2 25600:1 26307:1 28854:2 29037:1 29152:1 29312:2 30811:1 31162:1 34687:1 34894:1 35573:1 35669:1 37058:1 37533:1 38356:1 41032:1 41702:1 43853:1 44263:1 45367:1 48639:1 49086:1 51809:1 53446:2 53447:3 53448:1 53449:1 53450:1 53451:1 53452:1 53453:2 53454:1 53455:1 53456:1 53457:2 53458:1 53459:1 53460:1 53461:1 53462:1 53463:1 53464:1 53465:1 53466:1 53467:1 53468:1 53469:1 53470:1 53471:1 53472:1 53473:1 53474:1 53475:1 53476:1 53477:1 53478:1 53479:1 53480:1 53481:1 53482:1 #
0.0012231490351739108569939507020763 1:2 7:3 11:5 13:1 17:1 18:2 22:1 33:3 35:5 43:1 51:4 53:5 57:1 64:2 67:9 73:2 75:2 92:1 96:1 109:1 114:3 119:1 120:4 128:3 139:1 140:11 142:6 144:1 150:3 198:4 199:1 244:6 256:1 259:2 267:1 269:1 276:3 297:1 300:2 328:1 390:1 441:1 468:1 498:2 523:1 543:2 573:1 598:4 599:1 622:1 630:1 639:4 665:3 671:1 755:1 822:1 832:1 848:2 863:2 881:1 1024:1 1274:1 1283:1 1390:1 1458:2 1489:1 1491:11 1498:2 1520:1 1647:5 1727:1 1729:3 1764:1 1860:1 1861:1 1917:1 2072:2 2120:1 2240:1 2274:1 2287:1 2302:1 2748:1 2804:1 2825:1 2880:1 2943:1 3007:1 3192:1 3232:1 3253:1 3278:8 3301:2 3342:3 3388:1 3462:1 3668:2 3681:1 3683:1 3736:1 3887:1 3948:1 4408:1 4544:1 5156:1 5207:1 5242:1 5391:2 5443:1 5589:1 6165:1 6543:1 6974:2 6978:1 8749:1 8959:1 8971:1 8979:2 10787:1 11130:3 12385:3 13341:1 14135:2 14318:1 14565:1 14890:1 16323:1 18302:1 19641:1 23681:1 25850:2 26316:1 32287:1 33310:1 36590:1 36591:1 36592:1 36593:1 #
-0.0012231490351739108569939507020763 1:2 7:2 11:1 12:1 14:1 17:1 18:5 21:2 33:3 35:8 41:1 51:2 53:2 57:3 60:1 64:6 67:5 73:2 84:1 90:3 99:1 106:1 109:1 112:1 114:1 119:3 120:2 139:1 142:2 150:1 195:1 202:1 240:1 244:3 246:1 269:1 301:1 304:1 333:2 344:1 382:1 384:1 408:1 411:1 448:2 470:1 474:1 498:1 517:2 553:3 595:2 597:2 598:2 605:1 644:5 655:1 667:2 680:2 731:1 740:2 742:1 765:1 771:4 794:1 796:1 816:3 818:1 827:1 848:1 888:1 895:1 897:1 899:1 913:3 939:1 972:1 998:1 1024:1 1035:1 1036:2 1048:1 1053:1 1113:1 1190:2 1191:1 1278:1 1283:2 1286:2 1336:1 1349:2 1366:3 1370:1 1373:2 1381:1 1390:1 1394:1 1458:1 1472:1 1481:1 1494:1 1562:1 1596:1 1710:1 1727:1 1750:1 1768:1 1838:1 1890:1 1944:1 1975:3 1994:1 2033:1 2057:5 2060:1 2065:1 2173:4 2325:1 2553:2 2567:1 2568:1 2592:1 2654:1 2701:2 2833:3 2841:1 2936:1 2938:1 3033:1 3200:1 3220:1 3222:1 3369:1 3407:1 3559:1 3611:1 3657:1 3674:1 3763:1 3985:1 4045:1 4091:1 4104:2 4244:1 4522:1 4804:1 4818:1 4832:1 4893:1 5391:1 5397:1 5476:2 5911:1 5991:2 6047:1 6144:1 6382:1 6401:1 6543:1 6633:1 7108:2 7218:1 7339:1 7432:1 7598:1 7761:1 7813:1 7888:1 8018:1 8093:1 8510:1 8522:1 9228:1 9272:3 9526:1 9605:1 10957:1 11280:1 12241:1 12408:1 12833:1 13295:1 13508:1 14076:1 14103:1 14183:10 14329:1 15064:3 15203:1 15576:1 16776:1 17486:1 17674:1 17968:1 19230:1 19643:3 20650:1 22283:1 22873:1 27277:1 27788:1 28380:1 29600:1 29617:1 31775:1 34648:1 38888:1 41941:1 43086:1 43800:1 56413:1 56414:1 56415:1 56416:2 56417:1 56418:2 56419:1 56420:1 56421:1 56422:1 56423:1 56424:1 56425:1 56426:1 #
0.0012231490351739108569939507020763 1:2 2:1 16:1 17:1 18:1 22:1 26:1 67:1 73:2 163:1 227:1 999:1 1025:1 1368:1 1418:1 1473:1 1909:2 2249:1 2610:1 2611:1 2992:1 3058:1 3694:2 3695:1 3696:1 3697:1 #
0.0012231490351739108569939507020763 1:1 5:1 11:3 14:1 18:2 24:2 33:2 35:10 51:1 52:1 64:5 66:1 67:9 79:3 84:1 93:1 99:1 101:1 108:1 112:2 116:1 119:3 120:1 128:2 130:1 142:10 144:7 150:2 200:1 213:1 238:1 244:3 250:1 259:1 276:1 292:1 300:1 325:1 335:1 343:1 364:1 408:1 412:1 413:1 414:1 416:1 448:1 465:1 475:1 479:2 481:2 498:1 502:1 507:1 545:1 597:3 598:5 605:1 671:2 675:2 706:1 717:1 727:1 755:2 805:5 882:1 887:1 936:1 941:2 956:1 1000:1 1074:1 1347:2 1356:1 1373:5 1398:1 1458:4 1460:2 1484:4 1488:1 1489:3 1491:2 1492:1 1541:4 1553:1 1590:1 1596:1 1601:1 1753:1 1756:1 1776:1 1809:1 1811:1 1831:2 1861:1 1890:1 1900:1 2072:2 2103:1 2122:1 2129:1 2213:1 2223:2 2265:1 2346:1 2349:1 2477:3 2552:2 2553:1 2561:1 2564:1 2680:1 2713:1 2836:1 3011:1 3049:2 3167:1 3238:1 3344:1 3398:1 3584:1 3589:1 3641:4 3736:1 3775:1 4053:1 4064:6 4444:1 5015:4 5019:1 5107:1 5249:1 5743:1 5750:1 5763:1 5941:1 6949:1 7172:1 8372:1 8826:1 9130:1 9341:1 9695:1 9803:1 9812:1 9891:1 10533:1 10630:1 11195:1 11395:1 11734:1 12062:1 12637:2 14089:1 14719:1 14839:1 14979:2 16516:1 16817:1 17998:1 20159:1 20160:1 20181:1 24247:1 24988:1 25506:1 26877:1 28011:1 28127:1 28827:1 31212:1 31881:1 35121:1 38103:1 39601:1 41448:1 44631:1 44632:1 44633:1 44634:1 44635:1 44636:1 44637:1 44638:1 44639:1 44640:2 44641:4 44642:1 44643:1 44644:1 44645:1 44646:1 44647:1 #
-0.0012231490351739108569939507020763 1:2 5:2 11:2 13:1 14:1 16:1 17:1 18:1 22:1 35:5 51:1 64:4 67:3 96:2 106:3 109:1 119:2 120:1 126:1 128:2 140:1 142:4 150:2 227:1 281:1 300:1 335:1 338:1 364:1 390:1 444:3 459:1 548:1 565:1 598:4 605:1 644:2 667:2 830:1 848:3 1373:1 1427:1 1438:1 1469:1 1470:1 1473:1 1491:1 1521:1 1562:1 1568:1 1624:1 1728:1 1788:1 1811:1 1855:1 2012:1 2103:1 2107:1 2161:1 2249:1 2292:1 2511:1 2556:1 2901:1 2955:1 2970:1 3750:1 3936:1 3942:1 4786:1 5273:1 5376:1 5527:1 6115:1 6133:1 6523:1 7068:1 7350:1 7979:1 8632:1 8871:1 10374:1 10426:1 10504:1 10540:2 10570:2 12350:1 12833:1 13781:1 14923:1 17027:1 19681:1 20379:1 21569:1 22703:1 25850:1 33092:1 33490:1 37249:2 40977:1 48309:1 56259:1 56638:2 57527:1 79661:1 84097:2 86437:2 86438:1 86439:1 86440:1 86441:1 86442:1 86443:1 86444:1 86445:1 86446:1 86447:1 #
-0.0012231490351739108569939507020763 1:1 51:1 67:1 276:1 390:1 881:1 1590:1 3119:1 3342:1 5436:1 #
0.00016401987598886922726029724550756 1:1 5:8 7:3 13:2 14:3 18:2 21:1 33:5 35:11 51:1 53:2 55:1 64:4 67:1 73:2 77:1 92:2 96:1 106:1 108:1 128:1 136:1 138:3 142:4 144:3 146:1 150:4 181:1 184:1 199:1 202:1 236:1 250:1 263:1 271:1 282:1 301:1 323:1 335:1 344:1 393:1 428:1 448:4 455:3 475:1 484:1 605:1 630:2 655:1 671:1 727:1 834:1 848:1 973:1 1289:1 1429:1 1481:1 1541:8 1575:1 1587:1 1724:1 1763:1 1817:1 1831:1 1835:1 1852:1 1885:1 2077:1 2165:1 2288:1 2332:3 2458:1 2490:5 2538:1 2654:1 2713:3 2882:1 3179:1 3370:1 3565:2 3657:3 3736:1 3942:1 3956:1 4062:1 4084:1 4086:1 4120:1 4579:1 4670:1 5102:1 5690:1 5698:1 5700:1 8134:1 8985:1 11371:1 15758:2 17444:1 18578:1 21928:1 23588:1 23911:1 25822:1 31181:1 31560:1 31699:1 33364:2 36107:1 52579:2 52580:1 #
0.0012231490351739108569939507020763 1:1 3:1 7:2 11:2 30:1 33:5 35:6 42:3 50:1 51:2 53:3 64:1 67:2 73:3 109:2 125:1 126:1 142:1 200:1 202:1 244:1 295:1 333:1 338:2 343:1 393:1 408:1 444:1 481:1 671:1 675:5 695:1 782:1 805:2 856:1 882:1 1059:1 1390:2 1460:1 1491:6 1530:1 1553:1 1556:1 1591:1 1598:1 1649:1 1676:1 1811:1 1931:1 2080:1 2654:1 2773:1 3001:2 3144:1 3366:1 3395:1 3618:1 3722:1 3725:1 3871:1 3903:1 4419:1 5174:1 5186:2 6474:1 6634:1 6645:1 13295:1 29802:1 #
0.0012231490351739108569939507020763 1:1 3:1 7:6 11:3 12:1 17:3 18:1 33:1 34:1 35:8 36:1 48:1 51:4 53:4 64:4 67:2 73:1 79:2 96:2 106:2 108:1 120:1 126:1 128:8 130:1 142:4 144:3 145:1 205:1 244:3 250:1 269:4 271:1 338:3 455:1 498:3 502:1 556:1 582:1 597:1 598:1 655:1 717:1 848:1 864:1 883:1 894:1 1083:1 1333:1 1346:1 1372:1 1373:1 1404:1 1452:2 1458:2 1491:1 1494:2 1528:1 1529:1 1538:1 1542:1 1567:1 1568:1 1729:1 1739:1 1764:1 1860:6 1861:6 1918:2 2001:1 2032:1 2040:1 2381:1 2662:1 2742:2 2748:1 2750:1 2818:1 2821:1 2894:1 2902:1 2908:1 3154:1 3186:1 3188:1 3189:2 3191:1 3193:1 3345:1 3409:1 3482:1 3766:1 3799:2 4627:1 5256:1 5622:1 6398:1 6415:1 6445:1 6508:2 6509:1 6510:1 7538:1 7709:1 8848:1 10731:2 11030:1 11031:1 11032:1 11033:1 11034:1 11035:1 11036:1 11037:1 11038:1 11039:1 11040:1 11041:1 16855:1 #
-0.0012231490351739108569939507020763 1:1 11:1 57:1 112:1 142:1 597:1 598:1 871:1 1373:1 8427:1 8983:2 9425:1 19224:1 56562:1 71930:1 #
0.0012231490351739108569939507020763 1:1 5:1 11:1 35:1 67:2 112:1 227:1 436:1 724:1 830:1 1398:1 1427:1 1431:1 1541:1 1944:1 2308:1 2500:1 2548:1 3512:1 5232:1 5233:1 5234:1 5235:1 #
-0.0012231490351739108569939507020763 1:1 5:6 11:1 12:1 14:2 35:4 53:1 55:2 59:1 64:1 67:6 73:20 84:1 96:1 98:1 112:1 125:1 126:1 142:4 144:3 150:4 195:1 259:2 263:1 267:1 269:1 271:1 273:1 296:1 300:1 301:1 323:1 344:1 364:1 427:3 444:1 466:3 468:3 540:1 546:2 573:1 577:1 587:1 600:2 627:1 639:1 644:1 665:1 688:1 764:1 882:1 1289:1 1296:1 1349:1 1373:1 1469:1 1484:1 1541:1 1725:1 1756:1 1760:1 1768:1 1801:1 1835:1 1860:1 1900:1 1931:1 1976:1 2133:3 2291:1 2308:1 2325:1 2341:1 2419:2 2548:1 2561:1 2599:1 2602:1 2653:1 2654:1 2688:1 2841:1 2987:2 3232:1 3264:1 3273:1 3625:1 3683:1 3986:1 4136:2 4596:2 5171:1 5315:2 5322:1 5870:1 5875:1 6968:1 7052:1 7060:1 8720:3 8873:1 10491:1 11010:1 12129:1 16656:1 21889:1 25420:1 26630:1 27631:1 41260:1 59285:1 60976:1 75536:1 75537:1 75538:1 #
-0.0012231490351739108569939507020763 1:1 5:33 7:4 11:8 12:1 14:1 18:4 22:1 29:4 33:5 34:6 35:15 40:1 51:3 52:1 53:9 55:2 57:2 59:1 64:7 67:31 79:2 92:1 93:1 96:7 99:1 106:1 108:10 112:2 114:2 119:3 120:3 126:2 128:6 136:2 141:3 142:21 144:8 145:1 146:4 150:2 181:1 205:1 213:1 219:2 244:4 250:2 256:1 258:3 259:6 263:1 265:1 266:1 268:2 269:1 274:2 281:5 282:1 292:1 296:1 300:1 301:2 321:1 323:1 324:1 338:4 343:1 364:1 385:1 389:1 390:2 393:5 400:1 402:2 408:2 419:1 427:1 428:2 444:3 448:1 455:2 457:1 468:3 479:1 498:1 505:3 507:2 517:1 523:1 540:3 550:1 555:2 564:2 569:1 595:1 609:1 644:1 650:2 655:1 657:1 665:4 667:1 671:2 676:1 693:1 701:1 702:2 722:1 727:1 729:1 731:1 744:1 767:1 805:1 816:2 832:1 848:2 863:2 870:3 871:2 872:2 873:1 882:1 976:1 1038:1 1059:1 1083:1 1324:1 1330:1 1355:1 1430:1 1484:6 1489:1 1491:2 1494:1 1511:1 1517:2 1521:1 1527:2 1541:10 1560:1 1590:3 1591:4 1596:1 1598:1 1625:1 1646:1 1679:2 1703:1 1718:2 1801:1 1835:1 1838:2 1849:1 1857:2 1860:1 1861:1 1882:1 1885:1 1890:2 1930:1 2003:1 2032:1 2043:1 2066:1 2096:1 2133:1 2304:1 2424:1 2435:1 2462:1 2493:1 2508:1 2548:1 2552:1 2554:1 2594:3 2646:1 2654:1 2724:2 2731:1 2830:1 2891:1 2947:1 3170:1 3271:1 3414:1 3575:1 3598:1 3614:1 3680:1 3683:1 3740:2 3892:1 3934:2 4084:1 4108:1 4115:1 4144:2 4177:1 4189:1 4449:1 4604:1 4832:1 4904:1 5088:1 5121:3 5312:1 5566:1 5609:1 5610:1 5657:1 5698:1 5743:1 5996:1 6036:1 6151:1 6278:2 6354:1 6404:1 6929:1 7756:1 7783:1 8133:1 8743:1 8757:1 8804:1 9272:1 9312:1 9389:1 9936:1 10802:1 11102:2 11184:1 11188:1 11364:1 12399:1 13300:1 14193:1 14272:1 15640:1 16860:1 17127:1 17650:1 20419:1 23293:1 24485:1 26428:1 27994:1 39387:1 41140:1 42123:1 45371:1 46051:1 55833:1 56214:1 60892:1 79648:1 79649:1 79650:1 79651:1 #
0.00087976457536456903300858822802866 1:1 3:1 5:2 7:8 11:6 13:4 18:3 33:4 35:23 45:1 46:1 51:3 53:4 57:3 63:1 64:12 67:17 69:1 73:3 74:1 79:2 90:1 96:1 98:1 99:8 108:2 109:4 114:3 119:2 120:1 124:5 128:1 130:1 139:1 140:1 142:16 144:12 146:1 150:1 172:1 192:1 205:2 211:1 213:1 244:4 245:1 250:2 256:1 259:1 271:1 272:1 274:2 284:1 300:2 301:1 320:1 333:1 338:3 341:1 354:2 356:2 377:1 382:1 384:2 393:1 408:1 413:1 428:1 436:5 444:1 498:2 505:1 507:1 512:1 535:1 550:1 555:1 573:1 576:1 597:3 598:4 607:5 644:1 655:1 671:1 693:2 701:1 702:1 731:1 755:4 832:1 841:2 848:2 861:3 870:3 872:2 878:3 883:2 888:1 1059:2 1083:3 1104:2 1269:1 1318:1 1365:1 1390:1 1440:1 1484:1 1491:12 1494:5 1508:6 1530:1 1538:1 1556:3 1590:1 1591:2 1612:1 1652:3 1667:8 1669:1 1676:2 1696:1 1729:3 1744:1 1756:1 1773:1 1860:1 1941:1 1943:1 1949:1 1952:15 2004:1 2009:1 2080:1 2198:1 2223:1 2229:1 2266:1 2308:7 2320:1 2325:2 2381:1 2400:1 2408:1 2471:1 2493:1 2494:1 2581:1 2633:1 2660:3 2744:1 2773:1 2774:1 2804:1 2821:1 2870:1 2880:1 2899:2 2902:1 2949:1 2954:7 2970:1 3167:2 3186:1 3345:1 3362:1 3438:1 3657:3 3790:1 3876:1 3901:1 3948:2 3963:3 4064:4 4084:1 4123:7 4137:1 4418:1 4429:1 4567:1 4623:3 4657:1 4690:1 4838:2 5207:1 5252:14 5256:1 5996:2 6194:1 6201:1 6284:1 6401:1 6402:1 6456:2 6525:1 6537:2 6975:2 7766:1 8099:1 8749:1 8835:1 8871:1 9803:1 10373:1 11024:1 11128:1 11146:1 11367:1 12365:1 12875:1 12876:1 13262:1 13307:1 13748:3 13992:1 14067:1 14279:1 14707:4 17264:2 18182:1 18428:1 19599:1 20508:1 22573:1 24019:1 24020:18 24021:7 24022:1 24023:3 24024:6 24025:7 24026:1 24027:1 24028:1 24029:1 24030:1 24031:1 24032:1 24033:1 #
-0.0012231490351739108569939507020763 1:1 11:3 13:1 21:11 53:1 73:5 128:3 130:1 144:1 468:1 481:2 1491:1 1590:2 1625:1 1805:1 1944:1 2394:1 3169:1 5718:1 6400:1 8431:1 10677:1 13250:1 13966:1 17750:3 85502:3 85503:1 #
0.0012231490351739108569939507020763 1:1 5:2 11:4 12:1 14:1 18:2 29:1 33:1 55:1 67:1 108:1 119:1 216:1 300:1 455:1 598:1 671:1 972:1 1066:2 1083:1 1458:1 1484:1 1488:2 1489:2 1511:1 1586:1 1701:1 2552:1 2594:1 2659:1 2832:1 3163:1 3797:1 3912:1 5171:1 6795:1 9341:1 15222:1 16048:1 27141:1 30288:1 30289:1 30290:1 30291:1 30292:1 #
-0.0012231490351739108569939507020763 1:2 11:2 33:1 34:1 64:1 67:5 96:1 106:1 114:1 276:1 340:1 413:1 498:2 517:2 543:2 598:2 665:1 755:1 888:1 945:1 1000:1 1024:1 1253:1 1404:1 1458:1 1488:1 1489:1 1491:4 1494:1 1510:1 1526:1 1614:1 1679:1 1727:1 1859:1 1861:1 2159:1 2349:2 2850:1 2880:1 3229:1 3342:1 3343:1 3457:1 3597:1 3720:1 3898:1 4093:1 6781:2 8983:1 9494:1 30687:1 44470:1 97206:1 #
0.0012231490351739108569939507020763 1:1 3:3 5:8 7:6 11:1 12:1 13:3 18:3 29:1 33:3 35:8 36:1 40:7 52:1 53:5 55:2 57:1 64:5 67:13 77:1 93:2 96:6 108:3 114:1 119:1 126:1 128:2 142:7 144:5 145:1 146:1 150:5 181:1 200:2 205:3 213:1 244:5 250:1 256:1 259:3 263:1 264:1 266:1 267:2 268:2 269:2 271:1 276:1 283:1 295:1 300:4 301:1 335:5 337:1 341:1 351:1 364:6 390:5 413:1 444:1 451:1 455:1 468:6 527:1 533:1 550:1 555:2 565:1 605:1 609:2 644:1 667:3 669:1 671:2 693:1 701:1 722:2 795:1 857:1 870:2 871:1 872:1 873:1 878:1 882:1 889:1 980:1 1430:1 1458:3 1459:1 1514:3 1530:2 1541:3 1590:4 1622:2 1835:1 1859:1 1917:1 1961:1 2003:2 2080:2 2178:1 2184:3 2186:2 2191:1 2274:2 2291:1 2380:1 2552:1 2555:1 2595:1 2653:1 2662:1 2692:1 2818:1 2825:1 2864:1 2883:1 2943:1 2949:4 2962:1 3001:1 3124:1 3136:2 3332:1 3428:1 3644:1 4142:1 4253:1 4585:1 4787:2 5105:1 5156:1 5176:1 5220:1 5264:1 5526:1 5690:1 5962:1 6076:1 6116:1 6161:1 6608:1 6779:1 6975:1 7783:1 8283:1 9829:3 9898:1 10345:1 10690:2 11152:1 11339:1 11880:1 12262:1 12535:1 12536:1 13175:1 15095:1 17439:1 18125:1 28109:1 32426:1 36598:1 36599:1 #
0.0012231490351739108569939507020763 1:1 5:2 11:4 33:2 53:1 67:3 96:1 119:1 142:2 144:1 244:1 259:1 281:1 296:1 338:1 369:1 428:1 517:1 848:1 1349:1 1389:1 1391:1 1466:1 1484:1 1491:3 1536:1 1541:1 1550:1 1753:1 1765:1 2168:1 2284:1 2459:1 2543:1 2548:1 2740:1 2836:3 2969:1 3228:1 3345:3 3460:2 4210:1 5002:1 11613:2 12010:1 21016:1 22740:1 #
-0.0012231490351739108569939507020763 1:1 7:1 33:2 36:5 44:1 57:2 64:4 67:5 109:1 114:2 119:1 121:1 142:4 150:1 170:2 171:1 172:1 176:2 205:1 213:1 219:1 221:2 268:1 276:3 290:1 321:1 328:1 332:1 344:1 385:1 402:1 471:1 475:2 487:1 495:1 502:1 517:1 561:2 591:1 592:1 597:1 650:1 662:6 717:1 972:3 980:1 1024:1 1034:1 1083:1 1253:1 1294:1 1320:1 1458:1 1494:1 1508:1 1538:2 1559:1 1575:2 1608:2 1621:1 1700:1 1752:1 1798:1 1970:1 1979:1 2005:1 2022:3 2032:1 2043:2 2056:1 2168:1 2276:1 2370:1 2421:2 2516:2 2742:1 2765:1 2850:1 2878:1 2880:1 2932:1 3110:1 3125:1 3163:4 3170:2 3199:1 3211:2 3342:3 3345:1 3362:1 3474:1 3535:1 3567:1 3673:2 3681:2 3797:1 3853:1 3943:1 3948:1 3990:1 4104:1 4115:1 4601:1 4831:1 5127:2 5443:1 6170:2 6357:1 6399:1 6943:3 7538:1 7788:1 7886:1 8791:1 8987:1 9555:1 10294:1 14040:1 17314:1 18628:1 21371:1 21591:1 22558:1 23588:1 24570:1 24789:1 27829:1 28176:2 41160:1 45092:2 84963:2 84964:1 #
-0.0012231490351739108569939507020763 1:1 5:1 7:1 11:4 28:1 35:1 67:3 90:1 92:1 96:2 108:1 109:1 112:1 120:1 139:1 140:1 142:1 144:2 181:1 205:1 271:2 276:1 301:1 330:1 338:2 384:1 455:1 545:2 597:1 671:1 680:1 805:1 982:1 1191:1 1253:2 1270:1 1373:1 1458:1 1478:1 1489:1 1491:1 1498:1 1499:1 1538:1 1626:1 1911:1 1944:1 2100:1 2498:2 2554:1 2602:1 2987:1 3164:1 3298:1 3473:1 3697:1 4230:1 4666:1 5767:1 6491:1 7049:1 8117:1 9685:1 9757:1 10350:1 11715:1 11735:1 12055:1 17769:1 18007:1 18957:1 21502:1 24834:1 29977:1 31155:1 32414:1 58327:1 #
-0.0012231490351739108569939507020763 1:1 5:1 7:1 11:3 13:3 14:5 35:3 53:3 64:2 67:4 73:1 96:1 100:1 106:1 120:1 142:1 144:3 146:2 150:1 175:1 186:1 205:1 244:1 259:5 271:2 301:1 316:1 321:1 338:2 402:1 465:1 468:1 484:1 498:1 507:1 513:1 540:1 543:1 550:1 555:1 598:1 655:1 671:1 717:1 848:1 871:1 872:1 941:1 960:1 968:1 1356:2 1373:1 1458:2 1460:1 1481:1 1491:3 1596:4 1624:1 1693:1 1727:1 1729:1 1895:1 1970:1 2100:1 2120:1 2401:1 2456:1 2555:2 2654:1 3498:1 3570:1 4084:1 5354:1 5377:1 5612:1 5942:1 6155:1 8489:1 8725:1 8749:1 8985:1 10192:1 11188:1 14223:1 14322:1 14863:1 15804:1 16885:1 25660:1 28244:1 33210:1 35000:1 54584:1 81476:1 92147:1 92148:1 #
-0.0012231490351739108569939507020763 1:1 7:1 11:2 12:1 13:1 21:1 33:1 35:1 53:2 57:1 67:1 77:1 84:1 96:1 99:1 108:1 119:1 139:2 142:2 144:2 202:1 203:1 258:1 292:1 338:1 458:1 468:1 597:1 598:1 600:1 639:1 832:1 1373:1 1469:1 1491:2 1917:1 2054:1 2120:1 2325:1 2552:1 2558:1 2563:1 3232:1 3344:1 3495:1 4462:1 4724:1 5599:1 7988:1 27705:1 33026:1 70016:1 70017:1 70018:1 70019:1 #
0.0012231490351739108569939507020763 1:1 7:1 11:8 13:1 14:1 33:2 34:1 35:5 38:1 40:1 53:8 57:1 64:3 67:17 73:1 77:1 79:1 85:1 90:1 108:2 109:5 112:2 114:2 119:4 120:5 121:1 128:4 139:1 142:4 144:8 150:3 181:1 195:2 202:1 213:1 244:3 252:1 256:1 259:1 271:5 296:1 301:1 323:1 338:1 408:1 413:1 444:1 468:1 474:1 498:1 507:2 517:3 527:1 550:1 555:2 573:4 597:8 598:19 607:1 671:2 693:1 755:3 771:1 822:1 848:2 861:3 863:1 878:2 897:1 913:1 941:8 1005:1 1024:3 1034:2 1062:1 1190:1 1191:1 1318:1 1328:4 1356:1 1373:9 1427:1 1458:2 1481:1 1491:16 1494:2 1496:5 1515:1 1517:1 1530:2 1539:1 1552:1 1553:2 1590:1 1608:1 1621:1 1679:1 1715:1 1727:1 1759:2 1811:1 1897:1 1942:1 1945:1 1952:4 1961:2 1970:1 2072:6 2284:1 2387:1 2408:2 2493:1 2498:1 2538:1 2548:3 2564:1 2602:1 2745:1 2748:1 2825:1 2850:2 2880:1 2922:1 3033:1 3155:1 3191:1 3345:1 3603:1 3606:1 3625:1 3668:1 3673:1 3720:1 3723:1 3740:1 3948:3 3986:2 4016:1 4071:1 4104:1 4115:1 4254:1 4903:2 5091:17 5222:1 5627:1 5641:1 5814:1 6136:2 6139:1 6155:1 6187:2 6400:2 6445:1 6523:1 6542:1 6838:1 6839:1 6915:2 7588:1 9282:2 9678:1 9772:1 10319:1 10852:1 10878:1 10939:1 11420:1 11532:1 14900:4 15262:2 15263:3 16008:1 16011:1 16630:1 17034:2 19668:1 20012:3 20402:1 20632:1 20906:2 22813:2 22814:1 22815:1 22816:1 22817:1 22818:1 22819:1 22820:2 22821:1 22822:1 50183:4 #
-0.0012231490351739108569939507020763 1:1 18:2 27:1 33:1 35:14 51:2 53:3 55:1 63:1 64:7 67:1 99:2 100:5 114:2 136:1 141:1 142:2 144:1 145:1 166:1 227:3 256:1 258:1 259:1 269:1 307:1 323:1 338:1 390:1 408:1 605:1 639:1 671:1 709:2 725:1 871:1 873:1 1012:1 1624:1 1835:2 1903:2 1994:1 2017:1 2287:1 2291:1 2484:1 2540:2 2561:1 3740:1 4295:1 4703:2 7493:2 7750:2 9272:1 9319:1 9803:1 10066:1 10078:1 17759:1 17819:1 19318:1 19833:1 20053:1 32761:1 33531:1 42941:1 44506:5 47541:1 54672:3 54673:1 54674:1 54675:2 54676:1 54677:2 54678:1 54679:2 54680:1 54681:1 54682:1 54683:1 54684:1 54685:1 54686:2 #
-0.0012231490351739108569939507020763 1:2 7:3 9:1 11:1 17:1 18:1 21:1 22:1 30:1 33:3 35:6 44:2 49:2 51:1 53:3 57:1 64:1 67:4 73:3 75:1 77:1 79:1 84:3 119:2 120:1 125:1 130:1 142:5 144:1 150:2 211:1 244:2 328:1 338:1 408:2 428:1 433:1 435:1 507:1 576:2 598:1 665:2 693:1 713:1 725:4 832:1 878:1 888:1 1059:1 1062:1 1278:1 1283:1 1289:1 1311:1 1440:1 1458:1 1494:1 1647:1 1729:1 1801:1 1860:1 1861:1 1952:1 2120:1 2161:1 2173:2 2296:1 2304:1 2375:1 2663:1 2850:1 2880:1 2987:2 3192:1 3278:1 3327:1 3341:1 3388:3 3462:2 3715:1 3925:1 4123:3 5190:1 5290:1 5996:1 7389:1 7516:1 8725:1 8749:1 8812:1 8971:1 10731:1 11145:1 11186:1 11693:1 11795:1 12833:1 13771:1 14167:1 14318:1 14508:1 16834:1 20103:1 20369:1 22351:1 27729:1 41265:2 43002:1 48266:1 61246:1 61247:1 61248:1 61249:1 61250:1 61251:1 61252:1 61253:1 61254:1 61255:1 61256:1 61257:1 61258:1 61259:1 #
-0.0012231490351739108569939507020763 1:1 35:1 64:1 67:1 96:2 202:1 205:1 208:1 244:1 259:1 271:2 455:1 569:1 717:1 758:1 759:1 870:1 1491:1 2026:1 2040:1 2213:1 4068:1 4558:1 7545:1 8983:1 19224:1 27454:1 37980:1 65987:1 67643:1 #
0.0012231490351739108569939507020763 1:1 3:1 4:1 5:1 12:1 35:3 42:1 53:1 64:1 67:1 73:1 119:2 142:1 244:1 258:1 268:1 276:1 300:1 1460:1 1491:1 1899:1 2478:1 2670:1 2779:2 3004:1 5211:1 5256:1 7073:1 20795:1 50710:1 51689:1 #
0.0012231490351739108569939507020763 1:2 2:1 5:1 11:3 13:1 16:1 17:1 18:3 22:1 26:1 29:1 30:1 33:1 35:2 53:1 64:1 67:1 130:1 146:1 150:1 259:1 337:1 369:1 413:1 468:1 644:1 698:1 857:1 870:1 877:1 945:1 1438:1 1458:1 1472:1 1473:1 1494:1 1507:1 1541:3 2550:1 2711:1 3058:2 4038:1 4198:1 7508:1 8434:1 11000:1 13692:1 16836:1 53932:1 #
0.0012231490351739108569939507020763 1:1 35:1 73:1 142:1 244:1 276:1 516:1 1966:1 8901:1 15412:1 #
0.0012231490351739108569939507020763 1:1 3:1 7:3 11:4 12:1 17:3 18:1 33:2 35:4 53:4 64:5 67:7 68:7 96:3 98:1 109:2 114:1 119:3 120:7 128:1 142:9 144:5 150:1 213:1 244:2 256:1 259:2 263:1 268:1 269:2 271:3 300:2 301:1 356:1 402:1 444:3 491:1 517:2 523:1 540:3 543:1 561:1 597:2 598:3 655:1 667:1 671:1 724:1 725:1 832:3 848:4 879:1 936:1 1005:1 1034:1 1191:1 1253:1 1283:1 1389:1 1390:1 1395:2 1404:1 1429:1 1458:1 1460:1 1481:1 1491:11 1494:3 1498:1 1504:1 1505:1 1517:1 1530:1 1535:1 1538:2 1575:1 1590:1 1601:2 1621:1 1651:1 1665:1 1713:2 1729:2 1773:1 1831:2 1885:1 1899:1 1911:2 1945:1 1970:8 2115:1 2227:1 2381:3 2498:6 2548:1 2572:1 2654:1 2850:4 3192:1 3220:1 3342:3 3345:1 3511:1 3523:1 3622:1 3683:4 3715:2 3740:1 3891:1 3925:2 3927:1 4104:1 4123:2 4150:1 4480:1 4521:1 4531:2 4623:2 4666:1 5127:1 5190:1 5208:1 5214:1 5622:1 5713:1 6157:2 6194:1 6400:1 6441:1 6713:1 6902:1 6960:2 6961:2 6962:2 6963:2 6964:2 6965:2 6966:1 6967:1 6968:1 6969:1 6970:1 6971:2 6972:1 6973:1 6974:1 6975:1 6976:1 6977:1 6978:2 6979:1 #
0.0012231490351739108569939507020763 1:1 35:1 67:1 73:1 144:1 150:1 217:3 259:1 276:1 402:1 848:1 1318:1 1389:1 1404:1 1405:1 1524:1 1753:1 2692:1 5730:1 6741:2 7555:1 11544:4 16998:1 22959:1 26616:1 #
-0.00026354961142162705318298110412911 1:3 5:5 7:6 11:3 12:1 13:1 14:4 17:3 18:1 22:1 33:6 35:8 40:1 45:1 49:2 50:1 51:3 53:8 64:2 67:7 73:9 74:1 75:2 79:1 84:4 85:2 96:2 99:11 106:2 112:1 114:1 119:3 124:1 125:12 128:2 139:4 140:2 142:6 144:3 150:1 203:1 205:1 213:1 219:1 226:4 227:9 244:2 266:1 269:2 271:1 300:2 304:2 335:1 338:3 415:1 436:7 444:1 448:1 465:2 483:1 498:2 517:5 532:1 538:1 565:1 580:1 581:1 583:1 597:4 598:6 599:34 600:7 644:4 655:3 713:1 718:1 719:2 724:1 764:1 848:2 888:1 926:1 942:1 945:3 998:1 1006:2 1023:1 1030:1 1060:2 1244:1 1253:4 1278:1 1283:1 1287:3 1289:2 1347:2 1349:2 1356:1 1373:1 1390:1 1458:2 1469:5 1484:5 1491:4 1494:1 1525:1 1538:1 1624:3 1661:1 1674:1 1729:2 1756:3 1801:4 1853:1 1859:1 1860:3 1861:2 1918:1 1944:1 1953:1 2120:1 2159:1 2173:1 2177:1 2232:1 2296:2 2308:1 2345:1 2402:1 2575:1 2590:1 2602:1 2603:1 2701:1 2712:2 2813:1 2850:1 2987:1 2988:8 3118:1 3162:1 3188:1 3192:2 3238:1 3301:1 3342:1 3344:2 3345:1 3373:1 3392:1 3411:1 3438:1 3476:1 3531:1 3534:1 3538:1 3611:2 3634:1 3681:1 3683:1 3715:1 3782:1 3878:1 3975:1 4046:3 4142:1 4593:1 4627:1 4650:1 4671:1 4814:1 5158:8 5193:1 5230:1 5238:2 5242:2 5243:1 5244:1 5310:2 5436:1 5647:1 5708:2 5751:1 5930:1 5953:1 6033:1 6218:1 6382:1 6488:1 6706:10 6869:2 6909:1 7367:2 7866:1 7898:2 8222:1 8510:1 8666:1 8667:1 9234:2 9347:1 9633:2 9806:1 9808:1 9839:1 10056:1 10366:1 10540:1 10542:1 10664:3 10680:1 10906:1 11319:2 11393:3 11713:2 11737:1 11775:1 11887:1 12078:1 12246:1 12330:1 12977:1 13160:2 13415:1 13432:1 13801:1 14380:2 14434:1 14522:1 14897:1 15409:1 15576:1 16418:2 16565:2 16721:1 17219:2 17423:1 17464:1 17829:1 18653:1 18693:2 19235:1 20062:1 20211:2 20383:1 20660:1 20975:1 20988:1 22052:2 22084:4 22405:18 23117:2 23387:2 23655:1 23834:2 24104:1 24564:1 24618:1 25188:1 25337:1 25788:1 26105:1 27014:1 27150:1 28870:2 29174:1 30007:1 31099:2 32125:2 32408:1 32892:1 34805:1 34854:1 36500:1 36549:1 37657:1 37904:2 37934:1 38499:6 39852:1 40095:1 41204:1 42368:2 42704:1 44665:1 44669:1 45306:1 46526:1 47723:3 48788:5 53107:2 53783:1 58058:6 58061:1 58062:1 58063:1 58064:1 58065:1 58066:2 58067:1 58068:1 58069:2 58070:1 58071:1 59185:18 59316:2 72134:1 73338:1 73634:4 73635:1 73636:7 73637:3 87029:1 87897:12 87898:15 89478:1 89479:1 89480:1 89481:1 89482:1 89483:1 89484:1 89485:1 89486:1 89487:1 89488:1 89489:1 89490:1 89491:1 89492:1 89493:4 89494:1 89495:1 89496:1 89497:1 89498:2 89499:1 89500:1 89501:1 89502:1 #
0.0012231490351739108569939507020763 1:1 5:1 7:3 14:3 21:1 33:1 35:3 45:1 50:1 51:1 53:1 64:3 67:2 79:1 84:1 85:1 93:1 108:1 119:2 120:1 142:2 144:3 150:1 200:1 205:1 219:1 227:2 244:4 258:1 259:1 271:1 281:1 335:1 338:2 416:3 468:2 471:2 507:1 587:1 620:2 639:2 790:1 848:2 1404:1 1434:1 1458:1 1515:1 1819:1 1851:2 1855:1 1889:1 2002:1 2012:1 2165:2 2182:1 2478:1 2589:2 2599:1 2742:2 2903:1 3448:1 4300:1 4461:1 5416:1 6470:1 7478:1 8286:1 10360:1 11055:1 11467:1 11593:1 12100:1 12245:1 13592:1 15983:1 26212:1 33066:1 36901:2 36902:1 36903:3 36904:1 36905:1 36906:1 36907:2 36908:1 36909:1 36910:3 36911:2 36912:1 36913:1 36914:1 #
-0.0012231490351739108569939507020763 1:1 27:3 96:1 128:2 271:1 338:1 343:1 595:1 1598:1 2354:1 2954:3 2987:1 3024:1 3164:1 4490:1 5273:1 24564:1 24730:1 25739:1 33490:1 40679:1 54921:1 56068:1 56167:1 56960:3 57521:1 57528:1 57529:1 67760:1 76281:1 #
0.0012231490351739108569939507020763 1:1 5:1 7:1 22:1 35:1 45:1 67:1 99:2 263:1 281:1 292:1 337:1 353:1 384:2 1275:1 1404:1 3004:1 7096:1 26788:2 #
0.0012231490351739108569939507020763 1:1 7:1 64:1 120:1 144:3 244:3 263:2 304:1 457:1 565:1 1335:1 1405:3 1432:1 1524:1 1621:1 3209:1 12897:1 20687:2 #
-0.00095628206568937866322716034872542 1:1 7:19 11:4 16:2 18:4 21:5 23:1 30:2 33:28 35:73 40:1 47:3 48:19 49:2 50:3 51:8 52:1 53:14 55:2 57:2 58:5 64:35 67:27 73:8 75:2 77:1 79:5 85:1 87:1 88:1 89:7 90:2 92:1 96:5 98:1 99:1 101:1 104:1 106:1 108:6 109:1 112:3 114:3 115:1 116:1 119:10 120:3 121:2 124:1 128:1 130:1 136:1 137:1 139:14 140:7 142:50 144:12 146:4 148:1 150:6 174:1 181:1 195:1 198:4 199:3 200:3 204:3 205:8 208:1 211:1 217:1 221:2 227:2 240:1 244:12 245:1 250:10 259:1 261:2 263:1 266:1 267:2 269:3 271:5 274:1 281:8 283:1 287:3 292:2 296:1 300:2 307:2 323:2 330:1 332:3 333:3 336:7 337:1 338:10 343:1 344:3 345:1 346:3 351:1 352:1 362:1 369:4 385:2 390:1 395:1 402:1 404:1 408:3 416:4 427:1 428:2 436:1 437:4 441:3 444:8 446:1 447:1 449:1 455:6 456:3 466:2 468:1 481:1 495:1 500:1 510:1 512:1 521:1 534:1 546:1 572:1 573:1 584:1 595:1 619:1 625:1 626:1 642:1 644:2 655:2 657:1 662:1 666:1 667:3 671:2 692:1 693:1 702:1 706:1 713:1 720:1 731:1 732:1 753:1 761:2 764:1 765:1 781:1 832:1 835:1 848:6 857:2 860:2 864:1 871:1 873:2 878:3 879:2 882:1 889:1 894:1 898:1 899:1 926:2 937:1 944:1 1005:1 1012:1 1017:1 1025:2 1041:5 1062:1 1065:1 1132:1 1160:1 1269:2 1271:1 1272:3 1274:9 1288:3 1289:3 1300:2 1324:1 1331:3 1339:1 1352:3 1356:2 1363:1 1427:1 1452:3 1458:2 1481:1 1483:1 1498:1 1499:1 1513:6 1520:1 1522:1 1528:2 1571:1 1590:1 1591:1 1598:6 1606:2 1609:1 1625:1 1629:2 1636:1 1657:1 1670:1 1696:1 1713:1 1718:1 1728:1 1743:1 1754:2 1769:4 1773:1 1811:1 1831:1 1836:2 1857:1 1889:1 1944:1 1949:3 1954:1 1966:1 1997:1 2012:1 2028:1 2032:2 2035:1 2040:1 2062:1 2099:1 2110:1 2123:1 2232:2 2240:3 2243:1 2284:1 2294:1 2296:1 2308:5 2431:1 2449:1 2454:1 2457:1 2469:1 2498:1 2514:1 2516:1 2568:1 2583:1 2624:2 2626:2 2662:1 2678:3 2686:1 2692:5 2707:1 2724:1 2745:1 2754:1 2772:1 2785:1 2786:1 2836:2 2876:1 2880:1 2888:1 2890:1 2891:1 2892:1 2894:2 2898:2 2946:1 2957:1 3003:1 3110:1 3160:2 3332:1 3452:1 3490:2 3494:2 3510:1 3523:1 3531:10 3534:1 3589:1 3618:1 3689:1 3721:2 3826:1 3846:1 3848:1 3868:1 3878:1 3889:18 3892:1 3915:3 3919:1 3948:1 4081:1 4112:1 4114:1 4134:1 4157:1 4161:1 4186:1 4540:1 4552:1 4584:1 4612:2 4666:1 4813:1 4814:1 4828:2 4838:1 4849:1 4902:1 4903:1 5070:1 5083:1 5214:1 5239:1 5264:1 5332:1 5497:1 5536:1 5604:1 5607:1 5614:4 5622:1 5639:1 5694:1 5736:1 5878:3 5996:4 6060:1 6143:1 6169:1 6196:1 6446:1 6510:1 6525:1 6579:1 6675:1 6686:1 6795:3 6856:1 6875:1 7031:1 7182:1 7183:1 7190:4 7442:1 7494:1 7508:1 7531:2 7533:1 7550:5 7602:1 7615:1 7662:1 7664:1 7769:1 8015:1 8054:2 8102:1 8196:1 8270:1 8372:1 8831:1 8843:1 8858:1 8997:2 8998:1 9170:1 9284:1 9322:1 9340:1 9344:1 9382:1 9629:1 9634:1 9666:1 9717:1 9728:1 9748:2 9804:1 9937:1 9989:1 10013:1 10022:2 10165:1 10252:1 10571:1 10589:1 11211:1 11388:1 11398:1 11428:2 12330:1 12660:2 12820:1 13043:1 13281:1 13462:1 13630:1 13863:1 13900:1 14614:1 15290:1 15358:1 15373:6 15480:1 15525:1 15649:1 16007:2 16243:1 16374:1 16721:1 17081:7 17099:1 17149:3 17444:1 17809:1 17889:1 17921:1 18621:5 20160:1 20389:8 21736:1 22489:1 22941:1 23513:1 24267:1 24380:1 24465:1 25173:1 25374:1 25775:2 26408:1 27601:1 27863:1 27875:1 28219:5 30697:1 33760:1 33890:4 35375:1 37831:2 39564:1 39986:1 41029:1 41914:2 43062:1 43841:1 47037:1 47711:2 47712:1 49515:1 50510:1 53614:6 54591:1 54593:1 54715:1 55394:1 56225:1 57131:1 57579:1 57585:1 57596:1 57598:1 57600:1 57603:1 57917:1 58803:1 62961:1 62971:1 65277:1 66394:3 66954:1 72163:2 73307:2 75058:8 75061:1 75066:2 76054:1 76057:1 77834:3 78679:2 83046:1 83047:1 83049:1 83050:1 83052:8 83054:3 83208:1 95710:1 98215:1 98216:1 98217:2 98218:1 98219:2 #
-0.0012231490351739108569939507020763 1:2 7:10 11:4 14:2 18:4 27:1 28:2 30:1 33:41 35:69 40:2 44:2 47:3 48:25 49:5 50:3 51:6 53:12 55:2 57:1 58:5 62:1 64:22 67:19 73:8 77:4 79:1 87:1 88:1 89:4 90:2 92:1 96:6 99:2 100:3 106:1 108:11 109:4 115:2 116:2 119:7 120:1 124:3 128:5 138:2 139:1 142:39 144:17 150:8 174:5 179:1 181:2 184:2 195:3 199:2 200:1 205:10 219:1 221:5 227:2 244:13 250:9 259:2 266:1 268:1 269:3 271:5 273:1 281:1 291:1 305:2 307:2 320:1 321:1 323:1 328:3 332:8 333:1 335:2 338:4 343:2 344:1 345:1 351:3 355:4 360:1 362:1 369:2 370:2 377:1 384:1 385:1 393:1 408:11 413:1 418:1 434:1 444:3 455:3 456:1 466:1 487:1 493:2 495:2 498:3 502:1 510:1 512:1 517:2 522:1 534:1 539:1 540:1 561:2 573:2 577:2 585:1 598:1 621:2 644:2 657:1 667:4 671:1 673:1 692:1 701:2 706:1 714:1 724:1 725:1 731:1 732:1 761:5 832:1 835:1 848:4 856:2 857:1 863:2 864:1 870:1 873:2 878:1 879:2 898:1 926:1 945:1 980:1 1005:1 1061:1 1084:2 1271:1 1272:2 1274:8 1288:2 1323:1 1324:1 1352:4 1356:5 1458:1 1460:1 1489:1 1491:1 1494:3 1505:1 1517:1 1564:1 1573:1 1574:1 1590:3 1596:1 1598:2 1608:1 1611:1 1621:2 1625:1 1629:2 1659:1 1683:1 1713:2 1715:1 1736:1 1754:1 1760:2 1767:1 1805:1 1823:2 1847:3 1859:1 1860:1 1889:1 1915:2 1917:1 1954:5 1997:2 2001:2 2014:1 2028:1 2032:1 2043:1 2115:1 2123:5 2125:1 2148:1 2186:2 2198:1 2226:1 2232:1 2254:1 2295:1 2322:1 2381:1 2410:2 2427:1 2432:1 2433:1 2493:2 2494:2 2514:1 2554:1 2555:1 2587:1 2667:1 2686:2 2717:1 2745:2 2754:1 2785:1 2808:2 2846:1 2902:1 2969:1 3137:1 3164:1 3209:1 3300:1 3442:1 3531:2 3567:1 3589:2 3811:1 3848:1 3889:11 3901:2 3948:1 4064:1 4116:1 4150:1 4177:1 4289:1 4552:1 4593:2 4681:1 4835:2 4857:2 4893:2 4903:1 5120:1 5164:1 5171:1 5255:2 5268:2 5391:1 5536:1 5751:1 5838:1 6006:1 6066:1 6075:1 6196:2 6374:1 6459:2 6627:2 6702:1 6713:3 6795:1 6829:1 7031:1 7032:1 7175:1 7182:1 7190:2 7340:2 7378:1 7550:2 7701:1 7760:1 7964:1 8054:1 8086:1 8372:2 8387:2 8757:3 8848:2 8871:2 9170:3 9295:2 9388:1 9591:1 9629:1 9634:1 9656:1 9660:1 9673:1 9717:1 9985:1 10167:1 10202:1 10375:1 10506:1 10766:2 10786:1 11916:1 12820:2 13036:1 13083:1 13096:1 13185:2 13197:2 13345:1 13859:2 13872:1 13900:1 14023:2 14408:1 14696:4 15373:7 15490:1 16020:1 16187:1 17046:1 17798:1 17889:1 17921:1 18231:1 18302:1 18330:1 18751:2 19113:1 20103:1 22066:1 22489:1 22684:1 23013:1 23513:1 24059:1 24380:1 25298:1 25374:1 25557:1 25775:1 26664:2 27412:1 27998:1 28050:1 31257:1 32679:1 35499:1 36976:1 37824:1 38140:1 38507:2 41848:1 43015:1 43841:1 46689:1 48363:1 50297:1 52528:1 53110:8 54591:1 54593:1 54599:1 55368:6 55410:2 55423:1 55425:1 55484:2 55513:5 57057:2 57578:1 57580:13 57583:6 57584:3 57585:2 57586:2 57587:2 57588:2 57589:1 57590:2 57592:3 57593:2 57595:1 57596:3 57598:2 57599:1 57600:1 57604:1 57605:1 57607:1 57612:1 57613:1 57614:1 57615:1 57616:1 57617:1 57618:2 57619:2 57621:1 58636:2 60254:1 62971:1 63134:1 68393:1 70737:1 72719:1 73027:1 76053:1 76054:1 76055:1 76056:1 76057:1 76058:1 76059:1 76060:1 76061:1 76062:1 76063:1 #
0.0012231490351739108569939507020763 1:1 3:1 7:1 33:1 35:2 64:2 73:2 142:1 150:1 211:1 250:1 259:1 337:1 594:1 822:2 1339:1 1368:1 1481:1 1713:1 2431:1 2953:2 3343:1 3718:1 4804:2 5507:1 5843:1 7745:1 12227:1 28901:1 #
0.0012231490351739108569939507020763 1:1 5:1 7:1 11:2 13:1 34:1 35:2 53:1 64:2 67:3 100:1 109:1 119:3 139:1 142:3 144:2 146:1 181:1 202:2 271:1 300:1 318:1 343:1 345:1 419:2 468:1 479:1 498:1 972:1 1458:4 1484:3 1491:4 1515:1 1591:1 1655:1 1676:2 1726:1 1756:1 1775:1 1785:1 1890:1 1891:1 1900:1 1949:1 2402:1 2452:1 2548:1 2663:1 3136:1 3140:1 3727:1 4083:1 4116:1 5267:1 5299:1 5707:1 5749:3 5962:1 6044:1 7895:1 9218:1 #
0.0012231490351739108569939507020763 1:1 5:6 6:1 7:3 11:1 12:1 13:1 14:3 33:3 34:1 35:3 40:2 51:2 53:3 55:1 64:1 67:9 73:2 92:1 96:2 98:1 108:3 109:1 114:2 119:6 124:1 126:1 128:3 136:1 142:9 144:4 146:1 150:2 200:3 205:2 214:1 226:1 244:5 250:3 258:1 259:9 268:1 269:1 271:1 273:1 300:2 301:2 335:1 337:1 354:1 455:2 468:5 470:1 498:1 504:3 507:1 517:1 540:1 548:1 564:1 585:1 671:1 722:2 727:1 744:1 758:1 848:1 870:4 872:1 873:1 883:1 889:2 973:1 1062:1 1274:1 1296:1 1394:1 1404:1 1452:1 1458:2 1480:1 1482:1 1484:2 1488:2 1489:1 1494:1 1510:1 1517:1 1521:1 1530:2 1541:3 1545:1 1553:1 1573:1 1584:3 1590:2 1591:2 1596:1 1598:1 1604:1 1621:1 1690:1 1701:1 1703:4 1708:2 1726:1 1816:2 1916:2 1979:2 2191:1 2213:1 2370:1 2507:1 2511:1 2512:1 2565:2 2818:1 2825:1 2938:1 3014:1 3165:4 3166:1 3188:1 3625:1 3766:1 3768:1 3803:1 3934:1 3942:1 3956:1 4469:1 4553:1 4596:1 4610:1 4895:1 5540:1 6438:1 7009:1 8423:1 9287:1 9314:1 9509:1 10549:1 11379:1 11804:1 12673:1 12674:1 13051:1 13279:1 16817:1 19257:1 23682:1 26847:1 27470:1 29649:6 29650:1 29651:1 29652:1 29653:1 #
0.0012231490351739108569939507020763 1:1 2:1 5:11 7:3 11:16 12:2 13:2 14:7 18:2 29:4 33:4 35:16 50:1 51:5 52:3 53:4 55:6 64:7 67:11 73:6 77:1 96:3 105:1 108:4 109:2 112:1 114:1 120:3 122:1 124:1 138:1 141:1 142:5 144:14 146:2 150:3 153:1 168:1 175:1 195:1 197:1 202:1 205:1 219:1 228:1 244:16 259:15 263:2 267:3 269:5 292:2 300:1 301:2 307:1 316:1 338:5 341:1 344:2 351:2 364:2 390:1 393:3 408:4 428:2 444:3 454:1 468:6 475:1 484:1 488:1 497:1 498:5 501:1 507:4 517:2 540:1 546:1 550:1 555:1 563:2 565:1 566:1 573:1 579:1 609:1 650:3 655:3 709:1 722:1 725:1 727:4 729:1 759:1 767:1 832:1 834:3 863:1 870:2 872:1 878:1 881:1 937:1 976:1 1053:1 1269:1 1404:1 1452:1 1487:3 1489:1 1491:1 1499:1 1505:1 1514:1 1515:1 1517:1 1522:1 1529:1 1541:2 1596:3 1614:1 1621:1 1625:1 1700:1 1727:1 1729:1 1766:1 1811:1 1855:1 1910:1 1917:3 1923:1 1944:2 2112:1 2115:3 2191:1 2197:2 2284:1 2287:1 2332:1 2402:1 2407:1 2426:1 2457:1 2469:1 2555:1 2591:1 2592:1 2594:1 2595:1 2653:1 2697:1 2729:1 2777:2 2927:1 2984:1 3118:1 3143:1 3202:1 3264:1 3281:2 3370:3 3498:1 3587:1 3618:1 3630:1 3768:1 3910:1 3915:1 4035:2 4084:1 4413:1 4454:1 4529:2 4577:1 4690:1 4773:1 4787:1 5077:2 5121:1 5418:1 5435:1 5657:1 5673:1 5751:1 5763:1 6044:1 6096:1 6270:1 6272:1 6289:1 6477:2 6663:1 6686:1 7009:1 7013:1 7037:1 7340:1 7435:1 7974:1 8087:1 8102:2 8274:1 8709:1 8743:1 8983:1 9867:1 10030:1 10261:1 10263:1 11367:1 11440:1 11646:1 12086:1 12176:2 12481:1 12612:1 13246:2 13532:1 13637:1 13770:1 14186:1 15207:1 15276:1 17759:1 17788:1 17821:1 19043:3 19637:1 20292:1 20422:1 20490:1 21174:1 24553:1 25482:1 25513:1 25634:2 25753:1 25754:1 25903:1 27293:1 27604:1 27616:1 31621:1 31646:1 38133:2 38415:1 39239:1 39510:1 43783:2 47533:1 53469:1 54179:1 54180:1 54181:1 54182:1 54183:1 54184:1 54185:1 54186:1 54187:1 54188:1 54189:1 54190:1 54191:1 54192:1 54193:1 54194:1 54195:1 54196:1 54197:1 #
-0.0012231490351739108569939507020763 1:1 11:1 12:2 33:1 35:6 40:1 49:1 52:1 67:1 73:1 120:1 124:1 142:1 150:1 263:1 271:2 296:1 300:2 338:1 390:1 428:1 468:1 475:2 502:1 515:1 569:1 576:1 655:1 657:1 667:1 702:1 714:1 1328:1 1458:1 1491:1 1687:1 1759:1 1836:2 1903:1 1915:1 1918:1 1944:2 1961:1 2223:1 2308:1 2602:1 3340:1 3366:2 3564:1 4418:1 4565:1 4575:1 5193:1 5577:1 5604:1 6178:1 7996:1 8012:1 8070:1 8999:1 11783:1 12835:1 13345:1 14031:2 14897:1 16972:1 22703:1 24730:2 31381:1 32137:1 38447:1 44816:1 54920:2 55669:1 55670:2 55671:1 55672:1 55674:1 56167:1 #
-0.0012231490351739108569939507020763 1:1 5:21 7:1 11:3 12:1 16:1 21:3 29:2 35:12 36:1 40:1 52:1 53:1 55:1 57:1 64:3 67:4 73:1 96:3 108:4 112:1 114:1 119:2 126:2 139:1 140:2 142:7 144:3 150:2 181:1 184:1 205:1 219:2 244:5 249:2 259:10 263:1 269:3 271:1 281:3 296:5 301:2 308:1 338:1 345:1 351:1 364:1 377:2 408:1 441:1 444:1 455:1 468:1 498:2 507:4 524:1 555:1 569:2 579:1 598:1 609:1 619:1 620:3 624:1 644:1 665:2 671:1 702:1 727:2 767:1 836:2 858:1 865:2 870:1 945:2 1373:1 1484:1 1489:2 1491:2 1511:3 1541:4 1571:1 1584:2 1605:1 1763:1 1811:1 1827:1 1831:1 1941:1 2191:2 2245:1 2322:1 2393:1 2483:1 2539:1 2603:1 2615:1 2626:1 2654:1 2681:1 2713:1 2724:1 2777:1 3164:1 3618:1 3867:1 3975:1 4195:1 4449:1 4703:1 4827:1 5121:1 5333:1 5354:1 5750:1 6274:1 7014:2 8016:1 8710:1 8989:1 9302:1 10124:1 10392:1 10776:1 13601:1 13861:1 15290:1 17033:1 18553:1 19043:1 24112:1 25306:1 34270:1 43305:1 46702:2 51880:1 52179:1 54586:3 56447:1 60106:5 91197:1 91198:1 91199:1 #
-0.0012231490351739108569939507020763 1:1 5:29 7:4 11:12 13:5 18:2 21:1 29:2 33:10 35:39 43:1 50:1 51:6 53:14 55:4 64:16 67:38 73:2 79:1 89:2 92:1 96:6 98:1 101:1 108:7 109:2 112:2 119:7 120:1 124:1 126:1 128:1 130:4 138:1 141:1 142:14 144:7 150:3 182:5 200:1 202:1 216:5 239:1 240:1 244:6 250:1 259:11 263:1 268:1 269:5 271:6 274:1 281:4 292:6 295:1 296:1 301:1 304:1 316:1 323:1 324:1 331:2 337:6 338:2 344:3 351:1 357:1 393:3 402:1 413:1 430:1 444:1 455:2 457:2 498:1 507:1 517:5 543:1 550:1 564:1 565:1 569:2 573:3 605:5 607:1 609:8 655:2 671:3 678:2 693:2 714:2 722:1 758:3 771:2 805:2 848:4 865:1 871:2 872:1 873:1 898:1 936:1 941:1 989:1 1012:1 1061:2 1190:1 1289:1 1306:1 1333:1 1411:1 1430:1 1431:1 1458:3 1460:1 1479:1 1484:9 1489:2 1491:4 1511:1 1515:4 1517:2 1519:1 1521:1 1530:1 1541:12 1542:1 1557:1 1584:2 1590:3 1656:2 1684:5 1773:1 1831:1 1838:2 1849:1 1857:2 1861:4 1890:1 1900:1 1917:6 1943:1 1949:1 2040:1 2060:1 2102:1 2148:1 2166:1 2173:1 2222:1 2223:1 2270:1 2274:2 2300:2 2304:5 2305:1 2341:1 2347:1 2356:1 2402:1 2426:1 2452:1 2540:1 2542:2 2551:1 2568:2 2583:1 2602:1 2655:1 2662:1 2731:1 2748:1 2773:1 2818:1 2837:1 2927:2 2948:1 2984:1 3179:1 3205:1 3281:1 3345:1 3366:1 3374:1 3395:1 3471:2 3502:1 3657:2 3764:2 3768:1 3866:1 3916:1 3917:1 4035:2 4164:1 4198:1 4206:4 4480:1 4582:1 4598:1 4664:2 4667:6 4690:1 4721:3 5121:2 5182:1 5202:1 5391:2 5443:1 5453:4 5589:1 5641:1 5698:1 6060:1 6111:1 6142:1 6184:1 6566:1 6998:1 7068:1 7110:1 7749:1 7771:1 8232:1 8317:3 8709:1 8748:1 8880:2 9302:1 9345:2 9768:1 9860:1 9973:1 10022:2 10755:1 11139:2 11503:1 11759:1 13262:1 13345:1 14072:2 14171:1 14329:1 15782:2 15847:2 16223:3 16994:2 18578:1 20630:1 20721:1 21299:1 22106:1 23838:1 25166:1 25562:1 26708:5 31822:1 40572:1 40681:1 49866:1 49879:1 56515:1 56912:1 57927:2 63412:1 72301:1 75995:4 75996:1 75997:1 75998:1 75999:1 76000:6 76001:2 76002:1 76003:1 #
0.0012231490351739108569939507020763 1:1 5:1 11:1 14:2 35:3 55:1 64:2 73:1 93:1 100:1 108:1 144:2 150:2 238:1 244:1 269:1 281:2 468:1 471:2 725:1 744:1 798:1 889:1 1269:1 1615:1 1851:1 1857:1 1895:1 2212:1 3301:1 3896:1 4001:1 4062:1 4430:1 4548:1 16722:1 18255:1 #
0.00073772660880563661802561403746381 1:1 18:1 21:2 23:1 33:1 35:5 40:2 51:3 53:2 67:1 75:1 100:2 109:3 120:2 128:2 142:4 144:2 150:1 186:1 205:3 227:1 250:1 263:1 291:1 343:2 351:1 412:1 510:1 521:1 585:1 595:1 599:4 600:1 655:2 667:1 863:2 1140:1 1458:1 1471:1 1522:1 1573:1 1622:1 1654:1 1766:1 1949:1 2083:1 2103:1 2162:1 2186:1 2249:1 2284:1 2307:1 2471:1 2497:1 2654:1 2814:1 3136:1 3171:1 3314:7 3360:2 3379:1 3407:1 3986:1 4112:1 4593:1 4594:1 4671:1 4673:1 6895:1 10688:4 13807:1 17933:2 19111:1 23612:1 28918:1 28919:1 29938:1 32287:1 35097:1 36591:1 #
0.0010365290771256212200984725413377 1:1 3:5 5:1 7:4 13:3 18:1 27:2 33:24 34:2 35:18 36:3 43:1 47:1 48:5 50:1 51:1 53:5 57:1 60:1 64:25 67:17 73:5 76:1 77:1 79:3 89:3 92:1 96:11 99:1 101:1 106:1 108:10 109:4 114:4 115:1 119:2 120:4 121:3 124:2 126:1 128:3 130:2 136:1 139:1 142:37 144:12 145:1 146:1 150:6 152:1 177:1 181:1 184:5 190:1 200:3 205:7 208:1 211:1 214:1 216:2 217:1 231:1 235:1 244:1 250:2 255:1 256:1 259:4 268:1 271:24 276:2 281:1 283:2 287:1 300:1 307:3 318:1 326:5 328:1 331:2 335:4 337:1 338:5 360:1 364:2 367:1 376:2 388:1 390:3 393:1 394:1 408:3 412:1 413:2 419:3 427:2 428:3 455:3 465:3 468:1 474:2 495:2 498:1 507:1 515:1 535:1 560:1 561:1 569:1 577:1 584:2 595:2 605:1 619:1 657:1 661:1 665:1 667:9 693:1 701:1 720:1 728:1 761:2 765:1 781:3 782:3 784:1 816:1 822:1 832:2 848:30 855:23 856:2 857:1 864:1 865:1 870:2 873:3 878:3 879:3 881:1 882:1 895:2 897:1 1034:6 1083:2 1108:3 1128:2 1160:1 1177:2 1190:1 1268:1 1269:1 1279:1 1294:1 1306:2 1335:4 1339:1 1346:1 1350:1 1355:1 1360:1 1366:2 1402:1 1404:2 1430:1 1481:2 1482:3 1494:1 1498:1 1517:1 1519:2 1530:1 1562:1 1591:1 1608:1 1667:3 1708:2 1720:1 1721:1 1736:1 1738:2 1763:4 1767:1 1777:2 1782:1 1809:2 1817:1 1819:1 1890:3 1900:1 1917:1 1931:1 1945:1 1959:2 1966:1 1997:3 2003:3 2004:3 2005:2 2019:2 2025:1 2026:1 2028:3 2032:1 2034:1 2040:1 2093:2 2102:1 2153:2 2154:1 2159:2 2172:1 2179:4 2181:1 2184:1 2186:3 2213:1 2228:1 2229:1 2232:1 2234:1 2251:1 2252:1 2286:1 2322:1 2325:1 2349:1 2380:1 2387:1 2408:1 2416:8 2426:1 2433:3 2437:1 2450:2 2463:1 2506:1 2542:1 2545:2 2565:1 2575:1 2589:1 2597:3 2604:1 2644:1 2692:1 2701:5 2729:2 2733:1 2754:1 2786:1 2861:2 2864:1 2903:2 2928:1 2935:2 2936:1 2945:2 2952:2 2954:1 2957:1 3003:1 3007:1 3124:1 3138:1 3154:1 3164:1 3211:1 3238:1 3256:1 3300:1 3343:1 3490:1 3497:1 3534:1 3543:1 3557:1 3565:1 3657:1 3721:1 3730:1 3733:1 3751:2 3868:1 3878:1 3889:1 3892:1 3956:1 4046:1 4048:1 4064:2 4108:1 4224:1 4237:2 4571:1 4601:2 4768:1 4842:1 5121:1 5176:1 5223:1 5229:1 5249:1 5335:3 5375:1 5435:1 5540:1 5604:1 5634:1 5827:1 5959:1 6043:2 6058:1 6129:2 6142:1 6674:1 6713:1 6781:1 6898:1 6924:1 6959:1 7442:1 7545:1 7769:1 8036:1 8044:1 8205:1 8898:1 8993:2 9149:1 9282:1 9306:1 9333:1 9350:1 9385:1 9400:1 9407:1 9551:1 9563:1 10022:1 10938:1 11041:1 11945:1 12316:1 13143:1 14308:1 14309:1 15472:1 16987:1 17586:1 18218:1 18219:1 18493:1 20422:1 20530:1 23366:1 24171:1 29590:1 33369:1 33370:1 #
-0.0012231490351739108569939507020763 1:1 2:1 11:2 13:1 18:1 30:1 33:3 35:5 40:1 47:1 51:4 52:1 55:1 64:3 67:3 108:2 109:1 119:1 128:1 144:6 205:1 244:5 258:2 259:3 263:2 265:1 266:1 267:2 269:1 301:1 338:4 344:1 393:2 498:2 605:2 625:1 650:1 669:1 725:1 727:1 856:1 857:1 870:1 883:1 898:1 1311:1 1452:2 1483:1 1521:2 1590:1 1601:1 1712:1 1785:1 2115:1 2169:1 2198:1 2291:1 2346:1 2419:1 2538:1 2825:1 3264:1 3736:1 3766:1 4150:1 4171:1 5127:1 5527:1 6101:1 6354:1 7006:1 8709:1 9791:1 11819:2 13051:1 15798:1 16238:1 20482:1 26883:1 34600:1 37875:1 41072:1 55026:1 61348:1 62582:1 63365:1 66503:1 78670:1 91141:1 91142:1 91143:1 91144:1 #
0.0012231490351739108569939507020763 1:2 2:2 5:41 7:1 11:50 14:1 16:1 17:1 18:4 22:1 26:1 27:4 28:3 29:14 33:7 35:14 40:1 41:10 43:2 44:4 50:1 51:3 52:2 53:16 55:2 64:6 67:9 73:4 79:2 85:2 86:1 96:5 99:8 108:5 109:7 112:1 114:2 119:6 126:3 139:12 140:5 142:22 144:3 146:1 150:5 195:2 200:1 202:1 205:8 216:1 227:15 244:5 250:2 258:2 259:2 265:1 266:2 269:5 274:1 281:1 291:5 292:4 300:8 304:1 307:2 318:2 324:2 328:1 338:3 341:1 351:3 393:1 408:1 410:1 419:2 428:1 444:1 455:3 459:1 498:2 507:4 510:2 550:1 555:1 577:2 592:1 597:1 598:1 605:3 619:3 637:2 644:9 671:1 678:1 706:1 707:1 714:1 725:1 727:3 748:1 759:1 767:2 805:1 832:1 871:1 873:2 878:1 881:2 945:2 946:4 952:1 956:2 980:3 989:3 998:2 1006:5 1017:3 1021:1 1025:3 1031:2 1037:4 1041:1 1044:1 1059:1 1060:1 1062:2 1064:2 1075:1 1373:1 1379:9 1389:1 1390:3 1470:1 1473:1 1484:7 1489:4 1491:20 1492:1 1515:1 1521:1 1522:1 1541:22 1572:1 1586:1 1590:1 1596:1 1621:2 1831:1 1854:1 1885:1 1900:1 1917:2 1949:1 1984:1 1994:1 2026:1 2069:1 2213:1 2284:1 2290:1 2353:2 2400:1 2402:1 2407:1 2542:1 2550:1 2565:1 2582:1 2602:1 2662:1 2663:1 2748:1 2814:1 2887:1 3118:2 3119:1 3144:2 3147:1 3148:1 3151:1 3188:1 3222:1 3264:12 3281:2 3300:1 3369:1 3374:3 3591:1 3618:1 3764:1 3766:1 4193:2 4575:1 4702:1 5121:1 5264:1 5524:1 5599:1 5690:1 5751:1 5898:1 5986:1 6044:1 6456:1 6517:3 6529:1 6677:1 6944:1 7160:4 7169:1 7175:1 7399:1 7493:1 7504:1 7592:1 7607:1 7752:1 8086:1 8101:1 8431:2 8901:1 8994:1 9244:4 9277:1 9340:1 9898:1 9942:1 10079:3 10157:1 10514:1 10558:1 10834:1 11139:1 11331:1 12176:1 13051:2 13137:1 13233:4 13303:1 13917:1 14611:2 14780:1 14795:1 15707:1 15784:2 16223:10 16224:2 16225:10 16226:7 16227:1 16228:1 16229:1 16230:1 16231:1 16232:6 16233:3 16234:1 16235:1 16236:1 16237:1 16238:1 16239:1 16240:2 16241:1 16242:1 16243:1 16244:1 16245:1 16246:1 16247:1 16248:1 16249:1 16250:1 16251:1 16252:1 16253:1 16254:1 16255:3 16256:1 16257:1 16258:1 16259:1 16260:1 16261:2 16262:1 16263:1 16264:3 16265:1 16266:1 16267:1 16268:1 16269:1 16270:2 16271:1 16272:1 16273:1 #
0.0012231490351739108569939507020763 1:1 5:2 67:2 436:1 597:1 1199:1 1373:1 1397:1 1404:1 1590:1 1606:1 1641:1 1750:1 2308:3 2953:1 4363:1 4408:1 4415:1 5517:1 5947:1 9136:1 13916:1 15372:1 16655:1 16671:2 16678:2 18449:1 18451:1 18464:1 19332:1 21108:1 21110:1 21123:5 21185:1 21186:1 21706:1 21998:1 22017:1 22018:1 22030:1 22033:1 22034:1 22200:1 22275:1 22276:1 22652:1 41522:1 45216:1 46276:1 46277:1 46278:1 46279:1 46280:1 46281:1 46282:1 46283:1 46284:1 46285:1 46286:1 46287:1 46288:1 46289:1 46290:1 46291:1 46292:1 46293:1 46294:1 46295:1 46296:1 46297:1 46298:2 46299:1 46300:1 46301:1 46302:1 46303:1 46304:1 46305:1 46306:1 46307:1 46308:1 46309:1 46310:1 46311:1 46312:1 46313:1 #
-0.0012231490351739108569939507020763 1:1 11:1 13:1 14:1 35:1 53:4 67:1 114:1 128:1 139:1 146:1 271:1 276:1 543:1 655:1 764:1 834:1 1404:1 1458:1 1491:1 1596:1 1661:1 1729:1 1922:1 1979:1 2582:1 2599:1 3118:1 3164:1 3342:1 3575:1 4392:1 16824:1 25903:1 44584:1 #
0.0012231490351739108569939507020763 1:1 5:4 11:4 18:1 21:2 33:2 35:3 43:1 51:2 57:1 64:4 67:4 73:1 92:1 96:1 106:1 108:1 109:1 119:1 120:2 142:1 144:3 146:2 271:1 301:1 317:1 338:1 345:1 353:1 413:1 415:1 448:1 599:1 671:1 702:1 816:2 878:1 945:1 1006:1 1059:1 1289:1 1365:1 1452:1 1484:1 1491:1 1494:1 1505:1 1511:1 1525:1 1531:1 1541:5 1591:1 1626:2 1756:1 1817:1 1831:1 1890:1 1900:1 2028:1 2373:1 2493:1 2498:1 2499:1 2552:1 2598:1 2661:1 3014:2 3258:1 3802:1 3846:1 5065:1 5757:1 6635:2 7111:1 8352:1 11086:1 11256:1 11541:1 11542:1 11543:1 #
0.0012231490351739108569939507020763 1:1 7:1 11:8 18:5 34:2 35:5 53:2 57:1 64:2 67:11 96:1 108:1 112:1 114:1 119:1 122:1 138:1 142:4 144:4 146:1 150:4 195:3 205:1 259:1 267:1 269:2 271:3 276:2 332:6 338:1 364:1 393:1 394:1 408:1 428:2 475:1 498:2 517:1 544:1 550:1 597:1 598:4 657:1 767:3 818:1 863:1 877:1 894:1 1272:5 1373:1 1390:4 1391:1 1404:1 1423:1 1458:2 1486:1 1491:5 1494:1 1510:1 1527:1 1538:3 1550:1 1621:1 1729:1 1760:2 1763:1 1835:1 1857:2 1944:1 2120:2 2178:1 2287:1 2368:1 2373:1 2454:1 2538:1 2548:1 2572:1 2636:2 2688:1 2850:2 3118:2 3281:5 3301:2 3342:2 3462:2 3493:1 3495:2 3627:1 3768:1 3927:2 4053:2 4104:1 4301:1 4681:1 5197:1 5208:1 5639:1 5680:1 5825:1 5942:1 6153:2 6995:1 8792:1 10086:1 10319:1 10786:2 10871:1 14716:1 27076:3 39604:4 #
0.0012231490351739108569939507020763 1:2 3:1 5:2 7:6 11:10 13:3 14:3 17:2 18:1 33:3 35:13 40:1 49:1 53:4 57:4 64:1 67:8 96:2 106:1 114:1 119:4 120:2 121:1 124:1 126:1 128:3 142:8 150:4 195:1 205:1 213:1 244:3 259:2 269:3 271:1 276:2 300:1 328:1 338:2 393:1 413:1 428:1 468:2 498:6 500:1 502:1 507:1 515:1 595:1 598:2 607:1 657:1 717:1 722:1 724:1 764:1 832:1 863:2 870:3 878:1 882:1 888:1 1251:1 1253:1 1283:1 1427:1 1458:4 1483:1 1484:1 1491:9 1494:2 1504:1 1513:1 1517:1 1522:1 1530:2 1538:3 1541:5 1575:1 1590:2 1654:2 1713:1 1729:1 1773:3 1835:2 1857:1 1859:1 1861:3 1911:2 1918:1 1952:1 1966:1 1970:1 2031:1 2182:1 2198:1 2212:2 2287:1 2332:1 2498:8 2539:1 2548:1 2582:1 2642:1 2667:27 2825:1 2850:8 2968:2 3004:1 3192:3 3314:1 3315:1 3342:4 3437:1 3473:1 3491:1 3611:1 3668:2 3683:5 3744:1 3927:1 3986:3 4104:2 4177:1 4690:1 5208:1 5391:1 5641:1 5771:1 5772:1 5773:1 5875:1 6132:1 6194:1 6425:1 6974:2 7913:1 8666:1 8758:1 9305:1 9360:1 10339:1 11810:1 11906:2 14318:3 14897:1 19210:2 20189:1 22814:1 23757:2 24289:1 29977:2 39112:1 42304:1 #
0.0012231490351739108569939507020763 1:1 11:3 13:1 33:1 35:1 67:1 114:1 120:3 128:1 142:1 300:1 301:1 468:1 498:1 550:2 555:1 597:1 598:1 671:1 802:2 1272:1 1373:2 1491:2 1535:1 1590:1 1729:2 1861:2 1947:2 2011:1 2538:1 2667:5 2668:1 3683:2 5391:1 5735:1 5990:2 24488:1 24489:1 #
0.0012231490351739108569939507020763 1:1 5:7 7:3 11:2 12:1 14:1 17:1 25:1 29:1 33:5 35:5 40:1 52:1 53:1 67:2 73:1 92:1 96:3 106:1 108:1 119:2 142:3 144:1 211:1 228:1 244:5 263:2 269:1 272:1 281:2 338:2 355:1 507:1 513:1 566:1 600:1 644:1 747:1 759:1 832:2 871:2 1034:2 1391:1 1404:1 1483:1 1486:1 1491:5 1494:1 1528:3 1550:1 1596:1 1712:1 1851:3 1870:1 1885:1 1966:1 2191:1 2223:1 2308:1 2380:1 2498:1 2548:1 3580:1 3941:1 3956:1 4022:1 5222:1 6110:1 6400:5 8102:1 10591:1 10939:2 11184:2 33492:1 46402:1 50170:1 #
-0.0012231490351739108569939507020763 1:1 5:16 7:7 11:12 16:1 18:3 29:3 33:4 35:29 40:1 51:3 53:7 55:1 63:1 64:17 67:14 79:2 92:1 96:5 101:1 108:6 109:9 112:1 118:1 119:3 120:2 124:1 130:1 140:2 142:5 144:3 146:1 150:3 153:1 199:1 202:1 205:2 244:5 245:3 250:1 256:1 263:2 267:2 269:4 295:1 316:1 320:1 323:1 327:1 338:2 343:3 384:1 393:1 408:1 413:1 425:1 428:1 441:1 455:2 473:1 498:1 512:1 555:1 587:1 639:1 667:1 678:1 722:1 764:1 794:1 832:1 835:1 844:1 848:1 870:1 872:1 878:1 1012:1 1036:5 1083:1 1253:3 1323:1 1452:3 1458:2 1484:2 1489:1 1491:5 1494:2 1515:2 1521:1 1531:1 1538:2 1539:1 1541:6 1590:1 1604:2 1624:1 1673:1 1743:2 1859:2 1861:1 1866:1 1900:2 1917:2 1931:1 1943:1 1944:1 2040:1 2296:1 2304:1 2479:3 2498:4 2538:1 2551:1 2587:1 2731:1 2744:1 2818:1 2864:1 2894:1 3214:1 3273:1 3434:1 3757:1 3866:1 3887:1 4084:1 4163:1 4300:1 4657:1 5418:2 5698:1 5875:1 6183:1 6401:5 6503:1 6933:1 8024:1 8307:1 8352:1 8666:1 8829:1 9382:1 9686:1 9937:1 11102:3 11372:1 11639:1 14333:1 14564:3 16560:1 21353:1 22075:1 25176:3 29312:1 30711:1 35349:1 37502:3 42826:1 52358:3 53200:1 55294:1 55812:2 55813:1 55814:1 55815:1 55816:1 55817:1 55818:1 55819:1 55820:1 55821:1 #
0.0012231490351739108569939507020763 1:1 7:1 11:8 13:1 14:1 33:2 34:1 35:5 38:1 40:1 53:8 57:1 64:3 67:17 73:1 77:1 79:1 85:1 90:1 108:2 109:5 112:2 114:2 119:4 120:5 121:1 128:4 139:1 142:4 144:8 150:3 181:1 195:2 202:1 213:1 244:3 252:1 256:1 259:1 271:5 296:1 301:1 323:1 338:1 408:1 413:1 444:1 468:1 474:1 498:1 507:2 517:3 527:1 550:1 555:2 573:4 597:8 598:19 607:1 671:2 693:1 755:3 771:1 822:1 848:2 861:3 863:1 878:2 897:1 913:1 941:8 1005:1 1024:3 1034:2 1062:1 1190:1 1191:1 1318:1 1328:4 1356:1 1373:9 1427:1 1458:2 1481:1 1491:16 1494:2 1496:5 1515:1 1517:1 1530:2 1539:1 1552:1 1553:2 1590:1 1608:1 1621:1 1679:1 1715:1 1727:1 1759:2 1811:1 1897:1 1942:1 1945:1 1952:4 1961:2 1970:1 2072:6 2284:1 2387:1 2408:2 2493:1 2498:1 2538:1 2548:3 2564:1 2602:1 2745:1 2748:1 2825:1 2850:2 2880:1 2922:1 3033:1 3155:1 3191:1 3345:1 3603:1 3606:1 3625:1 3668:1 3673:1 3720:1 3723:1 3740:1 3948:3 3986:2 4016:1 4071:1 4104:1 4115:1 4254:1 4903:2 5091:17 5222:1 5627:1 5641:1 5814:1 6136:2 6139:1 6155:1 6187:2 6400:2 6445:1 6523:1 6542:1 6838:1 6839:1 6915:2 7588:1 9282:2 9678:1 9772:1 10319:1 10852:1 10878:1 10939:1 11420:1 11532:1 14900:4 15262:2 15263:3 16008:1 16011:1 16630:1 17034:2 18891:4 19668:1 20012:3 20402:1 20632:1 20906:2 22813:2 22814:1 22815:1 22816:1 22817:1 22818:1 22819:1 22820:2 22821:1 22822:1 #
0.0012231490351739108569939507020763 1:1 7:1 11:8 13:1 14:1 33:2 34:1 35:5 38:1 40:1 53:8 57:1 64:3 67:17 73:1 77:1 79:1 85:1 90:1 108:2 109:5 112:2 114:2 119:4 120:5 121:1 128:4 139:1 142:4 144:8 150:3 181:1 195:2 202:1 213:1 244:3 252:1 256:1 259:1 271:5 296:1 301:1 323:1 338:1 408:1 413:1 444:1 468:1 474:1 498:1 507:2 517:3 527:1 550:1 555:2 573:4 597:8 598:19 607:1 671:2 693:1 755:3 771:1 822:1 848:2 861:3 863:1 878:2 897:1 913:1 941:8 1005:1 1024:3 1034:2 1062:1 1190:1 1191:1 1318:1 1328:4 1356:1 1373:9 1427:1 1458:2 1481:1 1491:16 1494:2 1496:5 1515:1 1517:1 1530:2 1539:1 1552:1 1553:2 1590:1 1608:1 1621:1 1679:1 1715:1 1727:1 1759:2 1811:1 1897:1 1942:1 1945:1 1952:4 1961:2 1970:1 2072:6 2284:1 2387:1 2408:2 2493:1 2498:1 2538:1 2548:3 2564:1 2602:1 2745:1 2748:1 2825:1 2850:2 2880:1 2922:1 3033:1 3155:1 3191:1 3345:1 3603:1 3606:1 3625:1 3668:1 3673:1 3720:1 3723:1 3740:1 3948:3 3986:2 4016:1 4071:1 4104:1 4115:1 4254:1 4903:2 5091:17 5222:1 5627:1 5641:1 5814:1 6136:2 6139:1 6155:1 6187:2 6400:2 6445:1 6523:1 6542:1 6838:1 6839:1 6915:2 7588:1 9282:2 9678:1 9772:1 10319:1 10852:1 10878:1 10939:1 11420:1 11532:1 14900:4 15262:2 15263:3 16008:1 16011:1 16630:1 17034:2 19668:1 20012:3 20402:1 20632:1 20906:2 22813:2 22814:1 22815:1 22816:1 22817:1 22818:1 22819:1 22820:2 22821:1 22822:1 45719:4 #
-0.0012231490351739108569939507020763 1:1 11:2 13:1 33:1 35:1 142:1 1489:1 1591:1 1798:1 1857:1 1953:1 3281:1 7457:1 8318:1 9287:1 40485:1 61939:1 71124:1 71125:1 71126:1 71127:1 71128:1 71129:1 71130:1 71131:1 71132:1 71133:1 71134:1 71135:1 #
0.0012231490351739108569939507020763 1:1 3:1 7:1 33:45 35:1 38:1 39:1 64:1 67:1 73:1 99:1 139:1 181:1 227:3 301:8 448:2 636:1 644:1 773:1 1049:1 1053:1 1379:2 1394:1 1420:1 1463:1 1464:1 1468:1 1596:1 1862:1 2495:1 2545:3 2589:1 2604:1 2726:1 3020:1 3038:1 3039:1 3043:1 3044:1 3046:1 3047:1 3048:1 3061:1 3238:1 3488:1 3700:1 3703:1 3710:1 3712:1 3713:1 3714:1 3733:1 3750:1 3799:1 4712:1 4713:1 4991:1 5273:1 5524:1 5537:1 5544:1 5548:1 5549:1 5550:1 5551:1 7100:1 7101:1 7102:1 7103:1 7104:1 7120:1 7662:1 8130:1 24611:1 #
0.00089240306028256870512355147795347 1:1 18:1 33:4 35:9 49:1 53:4 61:5 64:15 73:3 98:1 116:1 119:5 120:1 121:1 142:21 144:1 150:2 199:1 219:1 221:2 223:3 244:3 246:1 250:2 285:1 297:1 338:3 355:1 402:1 408:1 428:1 448:2 455:1 548:1 552:1 553:4 564:1 567:2 576:1 600:1 662:1 696:1 877:1 879:1 933:1 935:1 972:1 973:6 1001:1 1024:1 1029:3 1032:1 1047:1 1048:1 1083:3 1112:1 1132:2 1177:1 1190:2 1324:1 1349:1 1356:2 1365:4 1396:1 1397:1 1494:1 1521:1 1545:1 1556:1 1573:2 1575:1 1591:1 1598:1 1768:1 1819:1 1857:1 1860:2 1865:1 1892:7 1931:1 1957:1 2096:1 2101:1 2107:2 2186:1 2206:2 2235:1 2433:1 2499:1 2508:2 2517:1 2518:1 2590:2 2686:1 2701:1 2841:2 2987:1 3150:1 3176:1 3211:2 3225:1 3226:2 3409:1 3526:2 3531:1 3620:1 3627:1 3636:1 3657:3 3893:1 3943:1 4195:1 4240:2 4243:1 4244:1 4250:1 4255:1 4268:4 4442:2 4779:1 4892:1 5171:1 5195:1 5528:2 5858:1 5870:1 5949:2 6052:1 6078:1 6098:1 6248:1 6302:2 6391:1 6392:1 6588:1 6645:1 7102:2 8031:2 9073:1 9528:1 9656:1 9792:2 9824:1 10188:1 10556:1 10724:1 12004:2 12172:1 12504:1 15593:1 16139:1 19230:2 21486:1 26939:2 33033:2 40062:1 42132:4 42133:1 42134:1 42135:1 42136:1 42137:1 42138:2 42139:1 42140:1 42141:1 42142:1 42143:1 42144:1 42145:1 #
0.0012231490351739108569939507020763 1:1 43:1 119:2 142:1 195:1 226:2 227:1 244:1 259:1 300:1 980:1 1461:1 1472:1 1862:1 1891:1 2173:1 2542:2 3209:1 8440:1 9228:1 25865:1 37555:1 37556:1 37557:1 #
0.0012231490351739108569939507020763 1:1 5:1 11:3 21:1 33:2 53:1 67:9 96:1 119:1 130:1 141:1 142:1 144:2 194:1 195:1 205:1 246:1 250:1 258:1 259:2 268:1 338:1 393:1 412:1 484:1 517:1 639:1 883:1 973:2 1131:1 1244:1 1283:2 1484:1 1545:1 1547:1 1587:2 1591:1 1630:2 2025:1 2552:2 2681:1 4152:1 5156:1 9229:1 11417:1 11421:2 18124:1 #
-0.0012231490351739108569939507020763 1:1 5:1 11:2 14:2 33:5 35:3 52:1 53:7 67:2 79:1 98:2 108:1 128:2 144:3 150:2 244:2 259:1 269:1 281:2 296:1 343:1 393:1 413:1 419:1 427:1 466:1 468:2 540:2 598:2 605:1 619:1 622:1 759:1 848:2 871:1 1078:1 1491:3 1505:1 1596:1 1621:1 1725:1 1773:1 1831:1 1946:1 2028:1 2110:1 2458:1 2939:1 3118:1 3270:1 3330:1 3668:2 3673:1 3699:1 3715:1 3928:1 3959:1 4408:1 4480:1 4552:1 4596:1 5875:1 6030:1 6047:1 7312:2 7535:1 12920:1 13626:1 14905:1 16745:1 18596:1 19670:1 28140:1 40871:1 41103:1 42884:1 60437:1 60440:1 60873:1 63785:1 72405:2 72406:1 72407:1 72408:1 72409:1 72410:1 72411:1 72412:1 72413:1 72414:1 72415:1 72416:1 72417:1 72418:1 72419:1 72420:1 72421:1 72422:1 72423:1 72424:1 72425:1 72426:1 #
0.00040236545774549896305888330161338 1:1 12:1 18:5 26:1 33:4 35:14 36:2 40:6 43:2 44:1 45:1 50:1 51:4 53:7 54:2 57:4 64:12 67:11 69:1 73:1 79:4 85:1 96:1 98:2 99:2 100:1 106:3 108:1 112:5 114:1 119:1 121:3 124:3 128:6 139:1 142:13 144:14 146:1 150:1 153:1 160:1 184:1 195:1 205:6 213:1 218:1 227:2 244:1 256:1 263:1 269:3 300:4 304:1 307:2 308:1 320:1 332:3 335:2 344:2 354:1 356:1 390:6 441:2 444:4 455:1 457:1 481:1 487:1 495:1 498:4 507:1 513:1 515:1 530:1 535:1 540:2 545:3 556:2 567:1 600:1 655:1 667:2 671:1 693:3 708:1 717:1 724:1 765:1 832:1 857:3 863:1 878:1 883:2 1005:1 1017:1 1244:1 1279:1 1300:2 1306:1 1307:1 1310:1 1320:2 1335:3 1427:1 1458:1 1528:1 1552:1 1570:10 1586:1 1614:1 1629:1 1656:1 1713:4 1739:1 1743:1 1744:2 1752:1 1768:2 1865:3 1959:5 1965:1 1966:1 2014:2 2052:3 2071:1 2100:1 2145:1 2161:1 2186:1 2325:2 2327:1 2416:5 2477:1 2498:3 2500:1 2520:1 2602:2 2646:1 2649:1 2663:1 2742:2 2754:1 2825:1 2948:1 3165:1 3168:1 3206:1 3256:1 3343:4 3381:1 3715:7 3748:1 3856:1 3887:1 3902:1 3942:1 4064:1 4067:2 4071:1 4163:2 4300:1 4541:1 4546:1 4884:2 4998:1 5043:1 5082:2 5114:1 5128:2 5610:1 5622:1 5838:2 5953:2 5957:1 5958:1 5970:1 6093:4 6162:1 6356:19 6401:1 6458:6 6556:2 6656:1 6670:4 6681:1 6697:1 6795:1 6898:2 7442:1 7671:1 7695:1 7756:1 7783:1 8037:1 8774:1 9443:1 9498:2 9527:1 9591:1 9667:1 10756:1 11263:1 12091:1 12329:1 13129:1 13331:2 13392:1 13791:3 14434:18 15177:4 15491:1 18772:1 19593:1 21591:1 22366:1 22489:1 23847:2 26271:1 28104:1 28219:1 28701:1 29743:2 30148:1 34396:3 36096:1 49574:2 49674:1 49675:2 #
-0.0012231490351739108569939507020763 1:1 5:1 7:6 13:2 18:2 33:8 35:49 50:1 51:6 53:12 57:9 64:34 67:19 79:4 99:1 108:3 109:7 114:1 119:1 120:1 122:1 124:4 126:2 139:1 142:26 144:6 146:1 150:8 158:1 176:1 180:1 195:1 200:1 202:1 205:3 223:1 227:1 244:6 245:1 250:1 259:3 271:3 276:1 317:1 335:1 338:5 341:1 344:1 354:1 355:1 384:2 391:1 408:1 428:3 455:1 475:1 488:1 516:1 522:1 526:1 539:1 548:1 555:3 577:1 595:3 597:1 644:1 667:1 693:1 696:3 731:1 755:1 758:1 827:8 848:1 856:1 863:1 872:1 930:1 973:11 1190:1 1244:1 1301:1 1310:1 1324:1 1334:1 1335:2 1373:1 1397:2 1427:1 1452:1 1494:6 1508:1 1513:2 1530:1 1533:1 1535:1 1556:1 1559:3 1590:1 1591:1 1598:1 1626:1 1649:3 1651:1 1674:2 1676:2 1679:1 1695:1 1696:2 1697:1 1701:2 1713:1 1739:1 1798:2 1811:1 1851:1 1860:2 1889:1 1891:2 1991:1 2017:1 2043:1 2069:1 2072:1 2119:1 2136:1 2169:1 2198:1 2362:1 2375:1 2449:4 2455:1 2499:1 2505:1 2520:1 2524:2 2590:1 2701:1 2711:1 2713:1 2728:1 2773:2 2841:1 2871:1 2880:1 2891:1 2902:1 2912:1 2919:1 2926:1 2930:1 2938:2 2991:1 3119:1 3126:1 3138:1 3139:2 3164:2 3238:1 3344:1 3412:1 3434:1 3438:1 3465:1 3472:1 3543:1 3551:2 3565:1 3586:2 3597:1 3609:1 3648:1 3668:1 3722:1 3723:1 3828:2 3856:1 3914:1 3917:1 3918:1 3963:1 4029:1 4042:1 4115:4 4119:1 4123:2 4177:3 4238:1 4242:1 4612:1 4784:2 4813:1 4884:1 4904:1 5247:2 5411:1 5456:1 5604:2 5818:1 5905:3 5996:2 6060:1 6140:6 6291:1 6438:2 6561:1 6995:3 7049:2 7136:1 7188:2 7446:1 8871:1 8939:2 9269:1 9285:1 9287:1 9301:1 9310:1 9338:1 9426:1 9736:1 10036:5 10256:6 10257:1 10319:1 10504:1 10569:1 10736:1 10885:1 11032:1 11039:1 11927:1 12097:1 12285:1 12365:1 12378:2 13695:1 14188:10 14340:1 14854:1 14866:1 15484:1 15528:1 15534:1 16309:2 16599:1 17349:1 17399:1 17727:1 17998:1 18093:1 18117:1 18234:1 18428:1 18708:1 18890:1 21174:1 22819:1 23765:2 23914:1 24033:1 24056:1 24747:2 25075:1 26793:1 28051:1 28311:1 29808:2 30635:1 31831:1 34091:1 45442:2 45698:4 45906:2 48278:1 56186:2 65882:1 78299:1 81938:4 95874:4 95875:1 95876:2 95877:2 95878:3 95879:1 95880:1 95881:1 95882:1 95883:1 95884:3 95885:2 95886:1 95887:1 95888:1 95889:1 95890:1 95891:2 95892:1 95893:1 95894:1 #
-0.0012231490351739108569939507020763 1:1 18:1 27:2 33:1 67:1 142:1 150:1 195:1 585:1 848:1 1612:1 1747:1 2072:1 2296:1 2337:1 2497:1 2927:1 2954:2 3412:1 3506:1 3886:1 5172:1 6731:1 9481:1 9788:1 10709:1 13804:1 19224:1 45168:1 56960:2 56961:1 #
0.0012231490351739108569939507020763 1:1 11:5 13:1 18:1 25:1 35:3 40:2 43:1 44:1 45:1 53:4 64:2 96:1 108:2 109:1 144:1 146:1 150:1 182:1 205:1 224:1 244:1 265:1 269:1 271:1 296:1 301:1 338:1 389:1 444:1 507:1 517:1 550:1 599:1 650:1 724:1 882:1 889:1 941:1 1289:1 1398:1 1402:1 1491:3 1517:1 1537:1 1540:1 1652:1 1759:1 1911:1 1931:1 2037:1 2100:1 2422:1 2548:2 2613:1 2899:1 2939:1 3119:1 3144:1 3277:1 3379:1 3457:1 3524:1 3683:1 3767:1 3891:2 4938:1 5175:2 6098:1 6161:1 6166:1 6175:1 8340:1 8905:2 11795:1 15206:1 15517:1 15518:1 15799:2 20126:1 22851:1 28444:1 28687:1 #
-0.00098875709788535069699744184390511 1:1 5:7 7:9 11:15 13:3 18:3 22:2 29:1 30:1 33:6 34:2 35:24 40:1 51:5 53:10 64:15 67:17 73:1 79:2 96:6 98:1 101:1 106:1 108:17 109:10 114:1 119:3 120:3 130:1 136:2 140:1 142:9 144:5 150:3 195:1 205:1 244:9 245:1 259:1 269:1 271:4 274:1 281:4 283:1 296:1 300:4 301:4 316:2 338:4 343:4 345:1 357:1 377:1 393:4 402:1 408:4 428:2 436:1 441:2 444:1 455:3 457:1 459:1 466:1 481:1 493:5 498:2 504:1 517:2 527:1 546:1 554:1 564:2 582:1 585:1 599:1 605:2 644:1 650:1 655:1 667:2 669:1 671:1 678:1 744:1 784:1 848:1 857:1 870:2 871:1 873:2 881:1 889:1 914:2 915:2 934:1 936:1 939:1 946:1 1005:1 1006:1 1012:1 1036:3 1048:1 1059:1 1061:1 1110:2 1269:1 1310:1 1318:1 1346:2 1390:1 1430:2 1452:1 1458:3 1480:3 1484:6 1488:1 1489:1 1491:6 1505:1 1515:1 1521:5 1531:1 1536:9 1538:1 1539:2 1541:3 1626:1 1646:1 1649:1 1673:2 1676:1 1724:2 1725:1 1729:1 1859:1 1891:2 1917:1 1943:3 1944:1 1946:1 1984:1 2014:1 2037:1 2040:1 2072:1 2120:1 2223:1 2232:1 2284:1 2285:1 2296:1 2304:1 2319:1 2341:1 2349:1 2363:1 2381:1 2388:4 2394:1 2474:1 2498:2 2540:2 2544:1 2551:2 2568:1 2590:1 2602:1 2663:1 2713:1 2750:1 2850:2 2880:1 2891:1 2902:1 2939:1 2941:1 2959:1 2968:1 3101:6 3152:1 3163:1 3179:1 3193:1 3210:1 3221:1 3238:2 3363:1 3438:1 3476:1 3534:1 3683:3 3904:1 4032:1 4206:1 4567:1 4993:1 5222:1 5318:2 5342:1 5576:1 5698:1 5824:1 5878:1 5962:3 6133:1 6151:1 6162:1 6179:1 6289:1 6351:1 6517:3 6581:6 6788:1 6933:1 6944:1 7466:1 7654:1 8037:1 8185:2 8709:1 8720:1 9153:1 9199:1 9261:1 9345:1 9851:1 9867:1 10022:1 10030:1 10810:1 11363:2 11759:1 11795:1 11819:1 12108:1 13420:1 13604:1 14413:1 15012:2 16228:1 16642:1 17501:1 17798:1 20372:3 20411:1 20423:1 20626:3 20630:1 20721:2 22636:1 25142:1 27880:1 29313:1 30758:4 32079:1 32637:1 33315:1 37502:4 40145:2 43158:2 55468:1 55469:1 56914:1 56915:1 74276:3 74277:3 74278:1 74279:1 80386:1 #
-0.0012231490351739108569939507020763 1:1 5:26 7:12 11:7 14:4 16:1 18:4 29:7 30:1 33:13 35:25 44:1 51:3 53:10 55:2 64:15 67:16 73:3 77:1 79:1 92:1 96:1 101:2 106:3 108:14 109:9 119:4 125:1 128:4 130:1 138:1 142:10 144:8 145:1 150:1 182:1 200:1 202:1 205:2 216:1 219:1 239:1 244:6 249:1 258:3 259:1 265:1 268:1 269:4 271:3 276:1 281:1 292:2 300:4 335:1 338:4 364:1 369:1 377:1 408:1 413:1 428:3 436:1 441:1 459:1 466:1 468:1 473:1 484:1 507:1 517:1 560:1 577:2 605:2 609:7 619:1 650:2 655:1 671:1 693:2 702:1 727:2 748:1 764:1 805:1 832:2 834:1 857:2 862:1 865:1 870:1 871:4 873:1 882:1 941:2 1083:3 1246:1 1247:1 1253:1 1269:1 1289:1 1301:2 1390:1 1404:1 1458:3 1480:1 1484:6 1489:4 1491:4 1494:1 1498:2 1499:1 1511:1 1515:2 1521:2 1541:13 1591:2 1596:4 1604:1 1638:1 1701:1 1712:1 1778:1 1831:1 1900:3 1917:4 2040:1 2121:1 2198:1 2243:1 2347:1 2380:1 2402:1 2419:1 2453:1 2479:1 2499:1 2540:2 2553:1 2555:4 2681:1 2705:1 2731:2 2821:3 2833:1 2882:1 2945:1 2976:1 3001:1 3179:1 3192:2 3273:1 3277:2 3374:3 3381:1 3430:1 3434:2 3471:1 3534:1 3591:1 3877:2 3901:1 3956:1 4035:1 4144:1 4177:1 4552:1 4575:1 4577:1 4702:5 4770:1 4806:1 4832:1 4883:1 5176:1 5362:6 5418:1 5457:1 5497:1 5525:1 5614:1 5941:1 6136:1 6401:3 6517:1 6566:1 6663:1 6675:1 6944:2 7000:1 7110:1 7117:1 7604:3 8783:1 8939:1 9441:2 9555:1 9851:1 9855:2 9937:1 10012:1 10133:3 11102:4 11662:1 12176:3 12207:1 12650:1 13243:2 13642:1 13750:1 13805:1 14333:1 14356:2 14460:1 14564:2 15789:1 15804:1 16238:1 19508:3 22165:1 24548:1 25169:1 26708:1 27412:1 27546:1 28092:1 30605:2 38275:1 38944:1 40790:1 44693:2 45349:1 48639:2 57574:1 59196:1 59205:1 65682:1 72053:2 73291:1 75074:1 75450:1 82434:2 82436:1 82437:1 82438:1 84888:1 84891:1 96043:1 96046:1 96047:1 96048:1 98517:3 98518:1 #
-0.0012231490351739108569939507020763 1:1 7:1 11:1 53:1 67:1 73:1 125:1 268:1 832:1 1373:1 1404:1 1469:1 1624:1 1756:1 1860:1 2599:1 2832:1 3232:1 3344:1 3866:1 3906:1 3927:1 4581:1 5171:2 11308:1 13395:1 15507:1 20906:1 24723:1 92113:1 #
0.0012231490351739108569939507020763 1:1 35:2 45:2 139:1 140:2 244:1 471:2 515:1 1427:1 2624:2 3664:1 4253:2 #
0.00013305888521223798262073378939618 1:4 2:2 7:8 11:3 16:1 17:7 18:2 22:1 26:1 30:1 33:11 35:21 36:6 40:1 50:1 51:6 52:1 53:4 57:2 63:1 64:18 67:11 73:1 79:2 96:2 99:1 106:8 108:4 109:4 116:2 119:1 120:2 121:1 128:5 130:1 139:1 142:13 144:4 145:1 153:2 170:1 184:1 197:5 199:3 205:5 216:1 221:4 227:1 244:6 259:4 267:1 269:3 271:5 283:1 300:2 301:1 320:1 332:1 338:1 340:1 364:1 388:1 408:4 413:1 419:1 471:1 498:2 500:1 510:1 517:6 534:1 543:2 550:1 561:1 582:1 585:1 598:1 608:1 644:1 652:1 655:5 661:1 693:1 701:2 717:6 724:1 764:1 814:1 816:1 832:2 848:7 883:1 945:1 946:1 952:1 1017:1 1034:1 1084:1 1256:1 1274:2 1286:1 1294:2 1300:3 1310:1 1319:1 1321:1 1324:1 1334:1 1356:1 1390:1 1431:1 1451:1 1452:1 1458:2 1470:1 1471:1 1473:1 1491:1 1494:2 1528:2 1542:1 1604:1 1609:2 1626:1 1665:1 1676:1 1708:1 1712:2 1753:1 1781:1 1798:4 1809:1 1811:1 1860:1 1861:1 1870:1 1889:1 1918:1 2005:1 2097:1 2166:1 2171:1 2225:1 2283:1 2322:1 2332:1 2624:1 2628:1 2704:2 2710:1 2735:1 2742:1 2748:1 2751:1 2754:2 2767:1 2771:1 2808:1 2818:1 2821:2 2894:1 2911:2 2917:1 2935:1 3127:1 3144:1 3164:1 3165:2 3186:1 3187:1 3188:1 3189:1 3190:1 3191:1 3193:1 3194:1 3252:1 3382:1 3473:1 3492:1 3496:1 3533:1 3607:1 3666:1 3668:1 3697:1 3822:1 3837:1 3883:3 3896:2 3903:1 3926:1 3956:1 3963:1 4017:1 4096:4 4110:1 4120:2 4166:2 4177:2 4301:1 4429:2 4562:1 4567:1 4627:1 4762:1 4784:1 4810:1 4837:2 4872:1 5131:1 5184:1 5229:2 5243:1 5256:1 5649:1 5839:1 6126:1 6205:1 6281:1 6288:1 6331:3 6510:1 6547:1 6882:1 7032:1 7110:1 7489:1 7756:1 8412:1 8748:1 9330:1 9470:1 9509:1 9694:2 9857:1 10711:3 10712:1 10713:1 10714:1 10724:1 10725:1 10728:1 10729:1 10730:1 10731:3 10732:1 10733:1 10734:1 10735:1 10736:1 10893:1 11048:1 11683:2 13097:1 13763:2 13792:1 14412:1 14615:1 17128:1 17217:1 18411:1 19091:1 19094:1 20458:3 25389:1 26408:1 27267:1 28820:1 30286:1 33657:1 35027:2 35028:1 35029:1 35030:1 #
-0.00068825035698618459642506017814867 1:1 11:1 35:3 53:1 64:6 67:2 79:1 84:1 108:2 138:1 144:1 150:1 166:1 244:2 259:3 266:1 276:1 301:1 338:1 491:1 517:1 644:1 650:1 657:1 671:1 759:1 832:1 871:1 883:1 1373:1 1693:1 1811:1 1831:1 1853:1 2012:1 2060:1 2276:1 2392:1 2469:1 2539:1 2602:1 2636:1 3342:1 3565:1 4420:1 5708:1 6183:1 6242:1 7563:1 8412:1 10690:2 11424:1 11819:1 13142:1 14638:1 15179:1 15422:1 16374:1 19332:1 19506:1 21413:1 30508:1 54583:2 56624:1 59949:1 72209:1 74262:1 #
0.0012231490351739108569939507020763 1:1 7:1 8:1 11:8 12:1 13:1 18:1 33:5 35:10 53:4 55:1 57:2 64:5 67:12 73:4 74:1 75:3 79:3 85:3 96:2 108:2 112:1 114:1 119:2 128:1 142:13 144:7 146:1 150:3 195:1 216:1 227:2 238:1 244:2 250:1 259:5 268:1 269:1 276:4 292:1 300:2 301:1 316:1 328:1 334:1 343:2 344:1 362:1 408:3 427:1 444:1 468:4 498:2 523:1 555:1 573:1 597:1 598:3 607:1 617:3 665:1 671:2 717:1 718:3 727:1 755:1 770:1 832:2 836:1 848:1 856:1 871:2 882:1 888:1 941:1 1059:3 1286:1 1318:1 1390:1 1458:3 1481:1 1491:7 1552:1 1616:1 1709:1 1713:1 1734:1 1743:1 1811:1 1860:1 1861:3 1952:1 1970:3 1979:1 2047:1 2087:1 2178:1 2191:1 2369:1 2422:1 2555:1 2582:6 2626:1 2654:1 2660:12 2705:1 2782:1 2858:1 2880:1 2921:1 3331:1 3342:3 3345:1 3428:1 3457:1 3462:2 3540:1 3598:1 3611:1 3625:3 3668:1 3681:1 3740:1 3789:1 3828:1 3927:1 3946:1 4581:1 4618:1 4623:1 4657:1 5019:1 5214:2 5223:1 5256:1 5435:1 5718:2 5802:1 6062:3 6428:6 6518:2 6647:1 6919:6 7060:1 7068:1 7443:1 7969:2 8411:1 8812:4 9159:1 9348:9 10013:1 10144:1 10871:1 10960:1 11130:1 11188:1 11326:1 11945:1 12266:1 12377:1 13462:1 13861:2 14033:1 14426:1 14829:1 14890:2 15499:1 16323:1 16522:1 16941:1 20101:3 22492:1 24035:1 37132:1 37251:1 37252:1 37253:2 37254:1 37255:1 37256:1 37257:1 #
0.0012231490351739108569939507020763 1:1 11:2 27:1 34:1 35:5 53:3 64:4 67:2 69:1 85:1 99:1 120:3 125:2 128:1 140:1 142:2 144:1 150:1 250:1 296:2 300:1 338:1 344:1 444:2 455:1 475:2 517:1 521:1 530:1 625:1 644:1 674:1 941:1 945:1 1318:1 1365:1 1366:1 1397:1 1458:1 1466:1 1472:2 1491:2 1494:1 1575:2 1753:1 2107:1 2325:2 2533:1 2548:1 2590:1 2654:1 2785:2 2844:1 2894:1 3004:1 3238:1 3472:1 3725:2 4689:1 4690:1 5182:1 5947:2 6194:1 6544:1 7048:1 7174:1 8848:1 9530:1 12811:1 30038:2 30039:1 31364:1 31366:2 31367:1 31368:1 31369:1 31370:1 31371:1 31372:1 31373:1 36466:1 #
-0.0012231490351739108569939507020763 1:1 14:1 27:2 33:2 35:1 53:1 64:1 85:1 99:1 109:1 139:1 140:1 142:1 144:2 150:1 267:1 268:1 296:1 468:1 481:1 515:1 600:1 639:2 655:1 856:1 1489:1 1491:1 1768:1 2308:1 3208:1 3232:2 3342:1 4225:1 4457:1 5164:1 5209:1 5387:1 5839:1 8840:1 11639:1 14224:1 15193:1 15804:1 16824:1 16912:1 29808:1 34874:1 40977:1 47201:1 55701:1 56579:1 58144:1 58145:1 58146:1 58147:1 58148:1 58149:1 58150:1 58151:1 58152:1 58153:1 58154:1 58155:1 58156:1 58157:1 58158:1 58159:1 58160:1 58161:1 58162:1 58163:1 58164:1 58165:1 58166:1 #
-0.0012231490351739108569939507020763 1:1 142:1 213:1 665:1 1404:2 2189:1 2981:1 3359:1 3782:1 4482:1 14722:1 16941:1 19075:1 19224:1 35251:1 35255:1 40996:1 43839:1 54514:1 55698:1 55701:1 56894:1 56895:1 56896:1 56897:1 56898:1 56899:1 56900:1 56901:1 56902:1 56903:1 56904:1 #
-0.0012231490351739108569939507020763 1:1 7:1 10:1 11:2 27:1 33:7 35:11 40:2 53:4 55:1 64:2 67:1 73:3 79:1 96:5 99:1 108:4 109:3 114:1 119:2 124:1 125:3 130:1 142:7 144:2 195:2 205:1 226:1 227:1 228:7 244:4 250:2 258:5 259:1 266:1 271:2 273:1 307:1 329:1 337:1 370:1 384:1 441:1 455:5 457:1 487:1 595:1 650:1 671:2 676:1 725:1 784:1 1012:1 1190:1 1285:1 1379:1 1404:1 1491:1 1517:1 1676:1 1684:1 1718:1 1763:1 1838:4 2035:1 2090:1 2098:1 2381:1 2539:1 2567:1 2570:1 2583:1 2588:1 2818:1 2895:1 2926:1 2927:1 2930:1 2936:1 2945:1 3209:1 3336:2 3657:1 3698:1 3843:1 4134:1 4136:1 4225:1 4389:1 4630:1 5007:1 5102:1 5454:1 5507:1 5641:1 6675:1 6944:1 7109:1 8748:1 9211:1 9345:2 9402:1 9757:1 13713:1 13932:1 14152:2 14178:3 14185:4 16134:1 17036:1 18645:1 20482:1 22672:1 25995:1 26622:1 26745:1 28285:1 34240:1 36533:1 46637:1 50282:3 51305:1 52118:1 52722:1 56413:1 62214:1 75449:1 80874:1 80875:4 80876:2 80877:1 80878:1 80879:2 80880:1 80881:1 80882:1 #
-0.0012231490351739108569939507020763 1:1 11:1 73:1 75:1 108:1 114:1 119:2 141:1 142:1 150:1 205:1 271:1 307:1 338:2 822:1 1491:1 1623:1 1743:1 2879:1 3010:1 3341:1 3589:1 3642:1 19224:1 23330:1 30477:2 62494:1 66455:1 74162:1 74163:1 74164:1 #
0.0012231490351739108569939507020763 1:1 3:1 5:2 7:3 16:1 18:3 33:10 35:7 43:1 51:3 53:1 58:1 64:5 67:7 89:3 96:1 101:3 106:1 108:2 109:2 112:2 115:2 119:1 120:1 126:1 136:1 137:1 140:3 142:8 144:5 150:3 199:1 217:1 244:2 250:3 258:1 271:4 332:2 337:2 350:1 363:1 408:6 459:1 468:1 481:1 495:2 498:1 555:1 585:3 591:1 605:1 644:1 671:1 835:1 848:3 870:1 894:1 956:1 972:1 998:1 1012:1 1132:1 1321:1 1452:1 1472:1 1494:1 1521:1 1536:1 1552:2 1557:1 1661:1 1769:1 1805:1 1812:1 1848:1 1949:1 2039:1 2093:1 2100:1 2148:1 2154:1 2177:1 2190:1 2213:1 2232:1 2299:1 2388:1 2417:1 2451:1 2467:1 2468:1 2469:1 2474:1 2477:1 2478:1 2495:1 2518:1 2555:1 2602:1 2705:1 2761:2 3016:1 3144:1 3889:1 4614:1 5694:1 5825:2 5973:1 6300:1 7442:1 7558:1 7591:1 7670:1 7870:1 8190:1 8372:1 9135:3 9156:1 9189:1 9613:1 9702:1 11239:1 13890:7 13917:1 13949:1 14226:1 15084:1 17073:1 17968:1 17969:2 17970:3 17971:3 17972:1 17973:1 17974:1 17975:3 17976:1 17977:1 #
0.0012231490351739108569939507020763 1:1 3:1 5:1 7:1 9:1 11:2 12:1 14:1 35:5 51:1 52:1 53:4 64:5 67:4 79:2 92:1 96:1 108:1 112:2 120:1 126:1 128:2 141:1 142:4 144:5 146:1 181:1 195:1 200:1 205:1 219:1 250:1 259:4 263:1 268:1 269:1 271:2 281:2 351:1 402:1 408:1 427:1 455:1 468:1 484:1 497:1 498:1 517:4 564:1 595:1 598:1 655:1 725:1 770:1 840:1 872:1 873:1 878:1 1373:1 1404:1 1458:1 1460:1 1484:1 1488:1 1489:1 1491:1 1541:1 1598:1 1620:1 1728:1 1729:1 1859:1 1860:1 1861:1 1890:1 1900:1 1930:1 2197:1 2199:1 2394:1 2542:1 2545:1 2548:1 2554:1 2654:1 2984:1 3043:1 3264:1 3345:1 3799:1 3942:1 4016:1 4134:1 4498:1 4552:1 4623:1 5165:1 5194:2 5312:1 5593:1 5751:1 7177:2 8388:1 8748:1 9404:1 16106:1 17851:1 36161:1 39226:1 #
0.0012231490351739108569939507020763 1:1 5:2 11:1 29:2 35:1 53:2 64:1 74:1 384:1 428:1 1480:1 1521:1 1626:1 1811:1 3014:1 3058:1 3111:1 4198:2 6645:1 28628:2 28629:2 #
0.0012231490351739108569939507020763 1:1 7:1 11:1 34:1 67:2 73:1 79:1 112:1 128:1 139:1 181:1 498:1 637:1 1458:1 1471:1 1491:2 1496:1 1510:1 1756:1 1775:1 1944:1 2548:1 3456:1 3641:1 7001:1 8391:1 8395:1 11928:1 17825:1 28684:1 34551:1 #
0.0012231490351739108569939507020763 1:1 2:1 7:7 11:3 17:3 18:1 33:1 35:5 51:4 53:3 64:2 67:3 79:2 96:1 106:3 120:2 126:1 128:8 130:1 142:3 144:3 145:1 205:1 244:4 269:4 276:1 338:3 444:1 498:3 502:1 582:1 597:1 598:1 655:1 717:1 848:1 863:1 864:1 883:1 894:1 1083:1 1346:1 1372:1 1373:1 1452:2 1458:2 1466:1 1491:1 1494:2 1528:1 1529:1 1538:1 1541:1 1542:1 1553:1 1567:1 1568:1 1641:1 1729:1 1764:1 1860:6 1861:6 1918:2 2001:1 2040:1 2227:2 2381:1 2552:1 2742:2 2748:1 2818:1 2821:1 2832:1 2894:1 2902:1 3154:1 3186:1 3188:1 3189:2 3191:1 3193:1 3345:1 3409:1 3482:1 3766:1 4062:1 4627:1 4823:1 4969:1 5256:1 5622:1 5627:1 6398:1 6415:1 6416:1 6445:1 6510:1 7538:1 8848:1 10731:2 11030:1 11031:1 11032:1 11033:1 11034:1 11035:1 11036:1 11037:1 11038:1 11039:1 11040:1 11041:1 26238:1 26553:1 #
-0.0012231490351739108569939507020763 1:1 5:8 7:2 11:3 13:1 14:2 18:1 33:2 35:15 40:3 43:4 44:1 53:2 55:3 57:1 64:2 67:7 73:3 76:1 79:2 96:1 98:1 99:1 108:2 112:1 114:1 119:1 120:4 126:2 136:1 138:1 142:7 144:1 146:1 150:1 176:1 181:2 195:3 202:1 226:1 258:9 259:2 269:2 271:3 281:4 320:1 343:2 345:2 393:1 402:1 413:1 427:1 468:1 563:1 569:1 587:1 600:2 605:1 644:2 671:1 678:1 701:2 725:1 764:1 805:1 863:1 870:1 878:1 907:2 1037:1 1289:2 1296:1 1379:1 1404:1 1430:1 1460:1 1480:1 1483:1 1484:1 1487:1 1491:1 1505:1 1521:2 1541:2 1590:1 1596:1 1621:5 1710:2 1773:1 1856:1 1857:1 1900:1 1915:1 1918:1 1931:1 1944:1 2028:1 2060:1 2325:3 2356:1 2380:1 2432:1 2435:1 2478:1 2553:1 2555:1 2594:1 2653:1 2654:2 2724:1 2832:1 2843:1 2894:1 2987:1 3125:1 3264:1 3266:1 3471:1 3543:1 3683:2 3764:1 3898:1 3986:1 4142:1 4144:1 4449:1 4480:1 4538:1 4539:1 4596:1 5077:1 5190:3 5194:1 5324:2 5327:1 5340:2 5425:1 5698:1 6036:1 6044:1 6135:1 6471:3 6649:1 7063:1 7203:1 7477:1 7496:1 7694:1 8009:1 8055:1 8098:1 8411:1 9149:1 10262:1 10491:1 10783:1 12129:1 13250:1 13734:1 14244:1 15436:1 19670:1 20134:1 20731:1 30891:2 32135:1 55759:1 59281:2 59282:1 59283:6 59284:1 59285:1 59286:1 59287:1 59288:1 #
-0.00088887090792274289340751947108288 1:1 2:1 5:31 7:5 8:1 11:8 12:4 13:5 14:3 18:3 21:2 29:1 30:2 33:15 35:43 40:6 43:1 51:4 53:6 55:3 59:1 64:8 67:33 73:13 79:2 92:1 96:6 99:2 106:1 108:8 109:6 112:4 119:3 120:2 122:1 126:1 128:8 130:1 133:1 136:1 138:1 139:3 142:30 144:15 145:1 146:2 150:8 164:1 181:1 184:1 195:2 199:1 200:2 201:1 205:1 208:1 213:2 216:2 219:1 223:1 237:1 244:13 245:2 250:7 258:5 259:18 263:2 266:1 267:1 268:5 269:5 271:1 274:1 281:8 292:2 295:1 296:3 300:4 301:2 302:1 308:1 335:1 337:2 338:2 351:1 363:1 364:2 377:1 379:1 390:4 393:4 402:1 413:2 419:1 428:1 441:1 444:2 449:1 455:3 468:7 487:1 497:1 498:5 504:1 507:2 555:3 564:1 569:3 573:2 579:1 587:5 598:2 605:1 620:7 644:2 650:1 655:7 658:1 665:1 671:1 701:1 702:1 709:1 713:1 714:1 722:3 725:1 758:1 767:1 832:3 836:1 848:2 856:1 870:3 872:1 879:3 882:2 936:1 945:1 973:1 1017:1 1269:1 1290:1 1299:1 1362:1 1375:1 1404:3 1427:1 1480:2 1481:1 1484:8 1486:2 1487:2 1488:2 1489:1 1491:6 1498:1 1505:2 1511:2 1517:1 1521:1 1525:1 1535:1 1541:10 1590:1 1591:1 1598:2 1609:1 1621:1 1696:1 1718:1 1768:1 1773:1 1774:1 1805:1 1809:1 1814:1 1831:1 1835:1 1848:1 1851:1 1857:1 1900:1 1915:1 1916:1 1922:2 1931:1 1944:1 1949:1 1991:1 2004:1 2012:1 2148:1 2165:1 2168:1 2197:1 2198:2 2213:2 2274:1 2275:1 2284:3 2287:3 2302:1 2304:1 2312:1 2347:3 2380:1 2410:1 2418:1 2432:1 2539:1 2555:1 2572:1 2575:1 2587:1 2595:1 2601:1 2603:1 2653:2 2731:1 2759:1 2927:1 2944:1 2984:1 3007:1 3118:1 3218:1 3232:1 3264:1 3275:1 3331:1 3345:3 3368:1 3375:1 3382:1 3412:1 3471:2 3476:1 3478:1 3481:1 3565:1 3580:1 3625:1 3767:1 3768:1 3799:1 3822:1 3946:1 3956:1 4035:1 4163:1 4177:1 4534:1 4585:1 4652:1 4654:1 4681:2 4703:1 4787:2 5077:2 5138:1 5156:1 5176:1 5190:1 5207:1 5332:2 5333:1 5599:1 5705:1 5763:1 5866:1 5927:1 6044:1 6096:1 6135:2 6274:2 6537:1 6547:1 6663:1 6690:1 6734:1 7007:1 7070:1 7494:1 7615:1 7750:1 8058:1 8440:2 8743:1 8819:1 8908:1 8935:1 8983:1 9153:1 9269:1 9272:1 9312:1 9345:1 9496:1 9572:1 9647:1 9654:1 9834:1 9894:1 9942:1 10027:1 10126:1 10691:1 10953:1 11096:1 11370:2 11438:1 11639:3 11655:1 11818:1 11930:1 11969:1 12050:4 12311:1 12562:1 12968:1 13129:1 13142:1 13265:1 13269:1 13388:5 14171:1 14726:2 14776:1 14863:2 15211:1 15300:1 15349:1 15401:1 15406:1 15453:1 16238:1 16268:1 16483:1 17033:1 17399:1 18097:1 18294:1 18553:1 19204:1 19224:1 19675:1 20123:1 20127:1 20292:1 20939:1 21124:2 21208:1 22911:1 22932:1 23360:1 24351:1 24367:1 24442:1 25214:1 25466:1 25520:1 25684:1 27091:1 27395:1 27932:1 27994:1 28940:1 31558:1 34602:2 35847:2 37828:1 38930:1 41933:1 46702:1 49673:1 49959:1 53084:1 53312:1 57921:1 61052:1 61273:5 61995:1 62218:1 62897:1 65278:1 70476:1 71142:1 71143:1 71144:1 71145:1 71146:2 71147:2 71148:1 71149:1 71150:1 71151:1 71152:1 71153:1 71154:1 71155:1 71156:1 71157:1 71158:1 71159:1 71160:1 71161:1 71162:1 71163:1 71164:1 71165:1 71166:1 71167:1 71168:1 71169:1 71170:1 71171:1 71172:1 71173:1 71174:1 71175:1 71176:1 71177:1 71178:1 71179:1 71180:2 71181:2 #
-0.0012231490351739108569939507020763 1:1 67:1 85:1 142:1 153:1 234:2 238:1 848:2 913:1 1621:1 1624:1 1718:1 1763:2 1765:1 2072:1 2217:1 2387:1 2444:1 4184:1 4378:1 4690:1 4712:1 4779:1 4879:1 5049:1 5188:1 5323:1 5381:1 5742:1 6044:1 6151:1 6238:1 7312:2 7625:1 8064:1 8366:1 9452:1 9742:1 10027:1 10230:1 10736:1 10822:1 10875:1 11275:1 11378:1 11676:1 13626:1 14171:1 14922:1 16090:1 20021:1 21014:1 21672:1 24776:1 25125:1 25562:1 25720:1 25809:1 26891:1 27670:1 27957:1 29604:1 32449:1 35611:1 39397:1 39773:1 39875:1 41047:1 41960:1 44873:1 47399:1 48865:1 49879:1 50280:1 51074:1 51157:1 53313:1 54492:1 54724:1 54792:1 54818:1 56063:1 56064:1 56065:1 56143:1 56358:1 56438:1 56866:1 57043:1 57254:1 57324:1 58004:1 58944:1 58956:1 59053:1 59057:1 59483:1 59909:1 61348:1 61548:1 61552:1 61588:1 61937:1 61948:1 62118:1 62919:1 63138:1 63298:1 63369:1 63613:1 63740:1 63768:1 64591:1 65145:1 66729:1 66742:1 66776:1 66938:1 67000:1 69350:1 70192:1 70203:1 72516:1 73115:1 74670:1 77107:1 78747:1 78777:1 80048:1 80359:1 81049:1 81238:1 81918:1 82034:1 82960:1 83082:1 84506:1 84654:1 86096:1 87410:1 88506:1 92129:1 92190:1 92191:1 92192:1 92193:1 92194:1 92195:1 92196:1 92197:1 92198:1 92199:1 92200:1 92201:1 92202:1 92203:1 92204:1 92205:1 92206:1 92207:1 92208:1 92209:1 92210:1 92211:1 92212:1 92213:1 92214:1 #
-0.0012231490351739108569939507020763 1:1 49:1 53:1 1811:1 19224:1 56561:1 #
-0.0010796842870479765597035992641395 1:2 7:6 11:6 27:2 33:16 35:15 40:1 47:3 48:12 50:2 51:3 53:3 55:1 64:15 67:9 73:7 75:1 85:2 89:3 92:1 96:2 99:1 106:1 108:3 109:2 115:1 119:3 120:2 121:1 125:1 128:2 140:1 142:17 144:2 146:2 150:2 180:2 181:1 200:1 205:5 227:2 244:8 245:1 250:3 256:1 266:1 269:2 271:3 276:1 282:2 292:3 300:1 304:2 323:1 328:1 332:3 333:2 338:4 359:1 385:1 389:2 390:4 408:1 444:2 447:4 455:2 457:1 481:1 495:1 497:1 498:2 500:1 521:2 556:1 573:2 592:1 598:1 625:1 639:3 644:1 671:2 701:1 727:1 761:1 764:1 781:1 782:1 802:2 848:1 857:1 878:2 882:1 898:1 899:1 944:1 946:1 972:1 980:1 987:1 1006:1 1012:1 1017:2 1113:1 1132:1 1268:1 1272:1 1292:3 1310:1 1324:1 1345:3 1352:6 1354:4 1356:1 1458:2 1460:1 1489:1 1515:1 1520:1 1522:1 1590:1 1624:3 1626:1 1715:1 1726:1 1773:1 1836:1 1859:1 1860:1 1861:1 1915:1 1984:1 1997:1 2033:1 2048:3 2054:4 2119:1 2215:1 2232:2 2243:1 2254:1 2284:1 2403:1 2416:1 2505:1 2507:1 2624:4 2667:1 2676:1 2677:1 2694:1 2701:1 2706:1 2707:4 2712:1 2732:1 2747:7 2772:1 2938:1 3110:1 3351:1 3442:2 3478:1 3534:1 3635:1 3689:1 3699:2 3721:1 3835:1 3878:1 3889:4 4081:1 4189:2 4244:1 4552:1 4565:1 4847:1 5007:1 5164:1 5355:1 5391:1 5607:1 5622:1 5751:1 5887:1 6169:1 6510:1 6525:1 6875:1 7031:2 7183:2 7769:1 8054:1 8723:1 8858:1 9002:1 9202:1 9340:1 9344:1 9444:1 9937:1 9953:1 10167:1 10181:1 10786:1 10938:1 11428:1 12660:3 13225:1 14023:2 14480:1 15290:2 15373:5 16000:2 16187:2 16332:1 16374:1 16510:1 18751:1 18831:1 18849:1 19907:2 20507:1 24267:1 25893:1 26408:1 28050:2 28232:1 37824:1 46329:3 46689:1 53311:1 54591:1 54593:1 54595:1 54596:1 54605:1 54698:1 54726:1 55126:1 55358:2 55376:1 55379:1 55410:1 55423:1 55441:1 55448:2 55513:1 56568:1 57582:1 57585:2 57589:1 57621:1 57654:7 57655:2 57656:3 57668:2 57677:1 57678:1 57680:1 57683:1 57684:1 57685:1 57686:2 57690:1 57849:1 58105:1 62121:1 62123:2 62595:1 77786:1 #
0.0012231490351739108569939507020763 1:1 35:1 38:1 96:1 455:1 1460:1 1495:1 1756:1 2125:1 2779:1 4210:1 10880:1 10881:1 10882:1 #
-0.0012231490351739108569939507020763 1:1 13:1 21:1 33:1 35:5 49:1 50:1 51:1 53:2 67:1 73:1 79:1 96:1 114:1 120:2 128:1 142:3 144:1 146:1 150:2 213:1 244:1 259:1 263:1 269:1 292:1 300:1 364:1 393:1 408:1 430:1 444:1 455:1 498:1 517:1 587:1 598:1 606:2 725:1 848:2 970:1 989:1 1024:1 1037:1 1373:1 1404:1 1482:1 1491:1 1541:1 1604:1 1931:1 2098:1 2133:1 2153:1 2266:1 2500:1 2654:1 3122:1 3155:1 3222:1 3618:1 3673:1 3936:1 4177:1 4828:1 5121:1 5146:1 5281:1 5700:1 7508:1 9238:1 9898:1 10477:1 13112:1 13782:1 14037:1 17650:1 17746:1 23897:1 30732:1 34399:1 46653:1 47858:1 56094:1 58031:1 60481:1 75484:1 78857:1 78858:1 78859:1 78860:1 78861:1 78862:1 78863:1 78864:1 78865:1 78866:1 78867:1 #
0.0012231490351739108569939507020763 1:1 195:1 259:1 1404:1 5015:1 9802:1 19072:1 52821:1 #
0.0012231490351739108569939507020763 1:2 7:1 22:1 33:2 35:1 108:1 119:1 144:1 244:2 259:1 276:1 281:1 301:1 498:1 1404:1 1482:1 1491:1 1587:1 1764:1 1909:1 3135:1 3490:1 4395:1 4627:1 4787:1 5256:1 5325:1 10013:1 21903:1 49312:1 #
0.0012231490351739108569939507020763 1:1 5:1 64:1 67:1 555:1 1062:1 1466:1 1491:1 1530:1 2297:1 2341:1 2836:1 3118:1 3442:1 8582:1 23124:1 30681:1 30682:1 30683:1 #
-0.0012231490351739108569939507020763 1:1 52:1 57:1 141:2 142:1 145:1 200:1 244:1 268:1 275:1 283:1 301:1 323:1 341:1 390:1 413:1 428:1 449:1 512:1 524:1 552:1 665:1 671:1 873:1 1256:1 1296:1 1535:1 1601:1 1614:1 1710:1 1811:1 1841:1 2011:1 2043:1 2332:1 2705:1 2850:1 3124:1 3324:1 3476:1 3627:2 3668:1 3946:1 4084:1 4426:1 4552:1 4575:1 4681:1 7068:1 7104:1 7418:1 8046:1 8468:1 8667:1 9277:1 10533:1 11173:1 11207:1 12262:1 13110:1 13197:1 14287:1 14576:1 14840:1 17377:1 20256:1 20292:1 20307:1 20372:1 20940:1 20946:1 22701:1 28216:1 60822:1 60823:1 60824:1 #
0.0012231490351739108569939507020763 1:1 5:1 7:4 11:10 13:2 14:2 30:1 31:2 32:2 33:2 34:1 35:8 36:1 39:1 42:3 51:1 53:3 55:1 64:7 67:6 73:2 74:1 75:2 77:1 79:2 89:1 92:1 96:3 109:1 114:1 120:1 128:2 141:1 142:5 144:5 146:1 150:2 200:1 205:2 216:2 219:2 239:1 244:2 250:1 259:1 271:1 281:4 296:1 317:1 323:2 325:1 338:2 455:3 468:1 498:1 507:1 517:2 546:1 555:1 573:3 577:1 598:1 640:1 650:1 669:1 680:1 729:1 744:1 758:1 805:1 848:3 857:1 863:1 870:5 872:3 879:1 882:1 883:1 976:1 1372:1 1391:1 1427:1 1431:1 1458:4 1491:10 1494:1 1514:1 1517:1 1530:1 1539:1 1541:1 1590:2 1591:1 1621:1 1676:1 1683:1 1708:1 1727:1 1759:1 1857:2 1860:1 1861:1 1888:1 1900:1 2184:1 2197:1 2376:1 2402:1 2471:1 2503:1 2538:1 2588:1 2692:1 2837:1 2849:1 2885:1 2944:1 3167:1 3225:1 3228:2 3273:1 3281:1 3368:1 3764:1 4418:1 5156:1 5176:2 6839:1 6997:2 7003:1 7122:1 8004:1 8901:1 9441:1 9824:1 10293:1 11102:1 11331:1 12243:1 15095:1 16602:1 18064:1 22911:1 24703:1 26255:1 27454:1 34240:1 34241:1 34242:1 34243:1 #
-0.0012231490351739108569939507020763 1:1 5:3 11:3 13:1 21:2 30:1 35:1 52:2 53:1 67:2 73:4 84:1 96:1 108:2 119:2 142:4 144:1 150:3 205:1 244:1 259:2 263:1 268:1 271:5 323:1 377:1 393:1 402:1 428:1 498:1 507:1 566:1 598:1 600:2 644:1 655:1 671:1 848:2 1188:1 1349:1 1373:1 1484:3 1486:1 1487:2 1488:2 1491:1 1517:2 1530:1 1575:1 1591:2 1728:1 1945:2 1949:1 2039:1 2070:1 2072:1 2284:1 2400:1 2552:1 2555:1 2748:1 3155:1 3264:1 3362:1 3867:1 4061:1 4490:1 4596:1 4775:1 5175:1 6323:1 7294:1 8295:1 9341:1 10133:1 10360:1 10805:1 13478:1 14863:1 15926:1 16972:1 17611:1 20256:1 25739:1 29440:1 32252:1 32883:1 34870:1 40009:1 42681:1 44184:1 54920:1 54921:1 56068:1 56972:1 56973:1 56974:1 56976:1 56978:1 56979:1 56980:1 56981:1 56982:1 56985:1 56988:1 57262:1 57521:1 57523:1 57524:1 57527:1 67759:1 67760:1 67761:1 67762:1 67763:1 67764:1 67765:1 67766:1 67767:1 67768:1 67769:1 67770:1 67771:1 67772:1 67773:1 74937:1 83272:1 83273:1 83274:1 83275:1 83276:1 83277:1 83278:1 83279:1 83280:1 83281:1 83282:1 #
0.0012231490351739108569939507020763 1:1 7:4 11:8 13:2 18:1 27:1 33:2 35:6 53:4 55:1 57:2 64:3 67:5 73:3 79:3 99:1 108:3 112:1 114:1 119:1 120:4 128:1 139:1 140:1 141:1 142:6 144:1 150:3 227:2 244:1 263:1 267:1 269:1 271:5 276:1 292:1 300:1 308:1 343:1 377:1 402:2 408:1 413:1 468:1 481:1 498:1 510:1 517:2 521:1 530:1 543:5 597:2 598:9 599:1 671:1 706:1 755:1 805:1 848:2 870:1 1289:1 1315:1 1341:1 1356:1 1373:2 1389:1 1427:1 1460:1 1481:1 1482:1 1486:1 1489:1 1491:9 1498:1 1562:1 1564:2 1590:1 1763:2 1831:1 1860:1 1861:1 1903:4 1910:2 1944:1 1970:1 2062:1 2072:1 2184:2 2284:1 2302:1 2375:1 2498:3 2548:1 2655:1 2694:1 2724:1 2795:1 3190:1 3344:1 3345:1 3388:4 3392:2 3438:2 3502:1 3510:1 3538:1 3667:1 3668:3 3683:1 3903:1 3920:1 4064:1 4575:1 4594:2 4639:1 4775:3 4856:1 5339:1 5708:1 5817:1 5998:1 6480:1 6653:1 6854:1 6915:1 6974:2 6978:1 7400:1 7493:1 8431:1 8749:1 10455:1 11024:1 11718:3 11759:2 14887:2 14888:2 14895:2 15512:9 15515:1 15521:1 17023:1 18199:1 25823:1 30318:1 30319:1 30320:1 30321:1 37904:1 49430:1 49431:1 #
